<?xml version="1.0"?>
<opencv_storage>
<opencv_ml_svm>
  <format>3</format>
  <svmType>C_SVC</svmType>
  <kernel>
    <type>LINEAR</type></kernel>
  <C>1.</C>
  <term_criteria><epsilon>1.1920928955078125e-07</epsilon>
    <iterations>1000</iterations></term_criteria>
  <var_count>12288</var_count>
  <class_count>2</class_count>
  <class_labels type_id="opencv-matrix">
    <rows>2</rows>
    <cols>1</cols>
    <dt>i</dt>
    <data>
      0 1</data></class_labels>
  <sv_total>1</sv_total>
  <support_vectors>
    <_>
      3.34301285e-06 7.57737917e-06 1.07661735e-05 -1.11842326e-06
      -6.34272965e-07 4.20556535e-06 -9.73391934e-07 -1.04318053e-06
      2.00700470e-06 6.50173070e-06 7.80535174e-06 9.05882644e-06
      1.29410219e-05 1.24041499e-05 1.23441660e-05 5.98697488e-06
      5.45717558e-06 4.45596424e-06 5.16201089e-06 4.54173005e-06
      3.61202660e-06 1.28254032e-05 1.27374606e-05 1.20883751e-05
      1.68574243e-05 1.76757512e-05 1.77673828e-05 5.35099798e-06
      5.06002334e-06 4.61563832e-06 8.51793266e-06 9.12871292e-06
      9.81255289e-06 1.02051990e-05 1.10810342e-05 1.14966606e-05
      1.59456231e-05 1.73153567e-05 1.63933437e-05 1.06772832e-05
      1.19696388e-05 1.11553500e-05 1.25418583e-05 1.44274472e-05
      1.39897302e-05 1.16676292e-05 1.35184255e-05 1.46902230e-05
      3.23456607e-06 4.19920025e-06 6.20560559e-06 -5.29982344e-06
      -3.93401797e-06 -3.20858339e-06 -7.86621877e-06 -6.21011850e-06
      -6.19036973e-06 6.12041140e-06 6.48967898e-06 6.78800234e-06
      2.91974152e-06 3.36866242e-06 4.77984941e-06 -1.20297855e-05
      -1.14921822e-05 -9.87132535e-06 -5.95611709e-06 -6.58934505e-06
      -4.36590699e-06 -4.96484563e-06 -6.10938423e-06 -5.03669526e-06
      -6.65452899e-06 -8.48268064e-06 -6.99821476e-06 -2.08819051e-06
      -4.23122037e-06 -2.92975415e-06 4.42380156e-07 -7.46380351e-07
      1.92989341e-06 2.45348997e-06 1.13046690e-06 3.01343198e-06
      4.69482757e-06 2.78370021e-06 4.69540146e-06 -3.31652950e-06
      -3.74327487e-06 -2.47434286e-06 8.34993079e-06 4.65967196e-06
      1.82723556e-06 4.90809271e-06 1.92386210e-06 -9.59745989e-07
      7.72827298e-06 4.17153933e-06 2.40810414e-06 6.22575271e-06
      2.64290111e-06 3.11463327e-06 2.29661532e-06 -4.05618863e-07
      -9.02339650e-07 3.27445969e-06 1.50145502e-06 6.68169264e-07
      1.76004482e-06 -2.65473901e-08 -1.42552244e-06 4.47534512e-06
      2.21754181e-06 1.05567790e-06 -3.00408692e-06 -1.90209016e-06
      1.32968432e-06 -1.10565156e-06 -8.72256749e-07 1.83067323e-06
      -1.56939132e-06 -1.11183874e-06 1.23925861e-06 -2.84277439e-06
      -4.42209375e-06 -3.12089537e-06 4.13216821e-06 4.15490649e-06
      6.89968056e-06 5.93402456e-06 5.30985744e-06 3.92731090e-06
      1.05246318e-05 1.03545317e-05 9.88213560e-06 2.01719558e-06
      1.72401610e-06 1.11335169e-06 4.08093501e-06 2.87281819e-06
      2.14670786e-06 6.70247437e-06 6.09043036e-06 6.08033952e-06
      6.75319507e-06 6.37342509e-06 6.35823062e-06 2.48803121e-06
      2.03374816e-06 2.90289876e-07 -3.28128772e-06 -1.96560836e-06
      -3.24556390e-06 -2.84370253e-06 -1.60699869e-06 -2.18166451e-06
      4.24787549e-06 4.30227965e-06 3.99292094e-06 6.64848085e-06
      8.66884784e-06 8.60085038e-06 2.57018928e-06 1.68932581e-06
      7.01384693e-08 1.53568690e-05 1.35449463e-05 1.12651742e-05
      1.96599358e-05 1.73642093e-05 1.25436054e-05 2.22137951e-05
      2.05534925e-05 1.60591317e-05 7.54592565e-06 5.92235028e-06
      2.24254745e-06 8.83284883e-06 6.81554411e-06 3.86759575e-06
      1.78994887e-05 1.80772804e-05 1.56104652e-05 1.12870330e-05
      1.08525592e-05 9.14809243e-06 8.90423235e-06 6.86712247e-06
      6.33131140e-06 1.19958613e-05 8.67503149e-06 7.69844246e-06
      4.19845264e-06 4.43804311e-06 7.98841484e-06 -8.03516195e-06
      -5.61198385e-06 -9.75883154e-07 -3.80921665e-06 -4.43738418e-06
      -7.86319617e-07 2.42645319e-06 2.19414528e-06 3.97444046e-06
      5.21051697e-06 4.07830112e-06 5.34557284e-06 6.05663945e-06
      5.87973682e-06 4.85431065e-06 -4.73693899e-06 -5.65092114e-06
      -6.56049633e-06 -2.76516744e-06 -2.98825535e-06 -4.21550158e-06
      -4.57453916e-06 -4.83703570e-06 -6.79499681e-06 -3.03298225e-06
      -4.31503531e-06 -6.62813181e-06 1.65552137e-06 2.73754381e-06
      2.06633672e-06 8.16077500e-06 1.07410497e-05 1.06375228e-05
      1.67015605e-05 1.91913878e-05 1.87231362e-05 1.69167779e-05
      1.93345149e-05 1.86895741e-05 1.47783931e-05 1.84064465e-05
      1.94937948e-05 1.11824593e-05 1.53300061e-05 1.71728789e-05
      3.52804955e-06 5.12514498e-06 7.23973199e-06 -1.72487842e-06
      9.40110795e-07 2.91125002e-06 -8.52946596e-06 -7.39838015e-06
      -6.68383291e-06 1.78715607e-06 3.22404935e-06 3.50093069e-06
      5.80684309e-06 6.56283328e-06 7.74038745e-06 -1.75993455e-06
      -1.42211468e-06 8.36713014e-07 3.49656176e-07 -7.71656062e-07
      1.32035586e-06 1.38621010e-06 -5.01113959e-07 1.55518774e-06
      2.69287330e-06 5.19549133e-07 3.06391212e-06 4.36900564e-06
      2.48584547e-06 4.40653821e-06 2.78557923e-06 1.35967798e-06
      3.71020292e-06 -2.55723057e-06 -3.94365361e-06 -2.04680714e-06
      -7.70073348e-06 -9.10716426e-06 -6.07760103e-06 -6.59646457e-06
      -7.96702898e-06 -5.18418528e-06 1.52730013e-06 -2.00262502e-06
      -2.94656979e-06 -3.69312670e-06 -6.96345751e-06 -7.92411720e-06
      -2.71956469e-06 -5.20342292e-06 -4.92533673e-06 2.29739294e-06
      -5.85148598e-07 1.65396762e-06 -8.57939764e-09 -1.65299298e-06
      -1.51822928e-06 -3.10999826e-06 -4.93644393e-06 -2.67193468e-06
      -1.14482793e-06 -2.41790462e-06 -9.28627742e-07 -1.85561177e-07
      -2.29991383e-06 -2.65723929e-06 -3.11653338e-07 7.67424638e-07
      4.64686764e-06 -4.89827698e-06 -4.07683820e-06 -1.57394368e-06
      3.18363436e-06 4.54288966e-06 7.09845108e-06 1.17153668e-05
      1.12003763e-05 1.32225505e-05 3.67431767e-06 3.21967900e-06
      5.44804516e-06 -3.84741861e-06 -3.67530311e-06 -5.01093473e-06
      7.02323291e-07 1.01882586e-06 -2.98670415e-07 -1.01145952e-06
      -1.96323569e-07 -1.49397204e-06 -1.87570311e-06 -1.99395799e-06
      -3.72345971e-06 5.80624328e-06 5.13480381e-06 4.83381018e-06
      7.48884077e-06 7.54140638e-06 5.96861764e-06 5.47786021e-06
      5.64846323e-06 3.63816434e-06 -2.35349603e-06 -2.57383385e-06
      -2.78448829e-06 -8.61604076e-06 -8.13403585e-06 -8.27744771e-06
      2.29266544e-08 -4.39582664e-08 -2.79549880e-07 6.18422746e-06
      6.61518925e-06 6.21239087e-06 5.91478602e-06 7.09099777e-06
      6.19101775e-06 1.83570537e-05 1.71225201e-05 1.46845214e-05
      1.08726044e-05 8.33440390e-06 4.79098662e-06 1.03856855e-05
      9.01936619e-06 5.05820253e-06 6.21699155e-06 6.16507987e-06
      3.23791210e-06 2.49023856e-06 1.11702968e-06 -4.51424768e-07
      2.01287858e-05 1.87805890e-05 1.67475591e-05 1.11190502e-05
      9.31994691e-06 7.39603865e-06 7.50331446e-06 6.34203070e-06
      5.37123060e-06 1.09256953e-05 8.47119372e-06 6.52298604e-06
      -5.57647184e-07 -1.29729688e-06 2.22667654e-06 -9.38202174e-06
      -8.44263195e-06 -3.96858377e-06 -8.49853313e-06 -7.22004233e-06
      -3.94346580e-06 -1.87259172e-06 -2.50992321e-06 -2.46586251e-06
      7.09070378e-07 -1.84453768e-07 -5.37114886e-07 5.41721465e-06
      4.24430982e-06 3.25788346e-06 -5.46902584e-06 -4.13451789e-06
      -3.46091610e-06 -1.01975786e-06 1.50259029e-06 2.99807061e-06
      8.42320514e-06 8.11923928e-06 8.21369304e-06 -5.48072603e-06
      -5.81903896e-06 -6.21167237e-06 -9.96287235e-06 -9.39009169e-06
      -9.49767582e-06 -1.99554734e-06 -1.20591449e-06 -3.87912849e-07
      -3.87229079e-07 3.97717457e-07 4.52709685e-07 -3.29953264e-06
      -1.13607098e-06 -8.63197897e-07 4.17226647e-06 7.81613198e-06
      9.90031094e-06 6.52927838e-06 1.03616676e-05 1.19837214e-05
      9.81267362e-07 3.17519334e-06 4.14838314e-06 -3.48884214e-06
      -9.07749211e-07 8.54822190e-07 -1.08617251e-05 -9.69929079e-06
      -8.26712130e-06 -5.90782747e-06 -4.39546784e-06 -3.40131737e-06
      -3.26734335e-06 -2.27793271e-06 -7.04166894e-08 -4.58057821e-06
      -4.22326411e-06 -9.63905563e-07 -1.38103894e-06 -1.42688009e-06
      1.52897326e-06 4.43491990e-06 3.49594939e-06 4.54878500e-06
      5.41762029e-06 4.97149131e-06 5.58317151e-06 3.70776752e-06
      3.00179136e-06 4.54357860e-06 -5.92460651e-07 -1.37924633e-06
      1.22298241e-06 2.15720689e-07 8.67395215e-07 3.43572651e-06
      -6.18388015e-07 1.08586119e-06 4.62402249e-06 -4.89688182e-06
      -4.10439225e-06 -1.16298668e-06 4.87166426e-06 3.39240887e-06
      3.66534937e-06 2.46974651e-06 4.03706326e-06 5.88795365e-06
      9.09244136e-06 8.99512634e-06 1.03254924e-05 1.36961262e-05
      1.18373837e-05 1.13716333e-05 1.52615416e-06 1.50600943e-06
      1.80384097e-06 7.24282108e-06 6.80908579e-06 7.66831363e-06
      9.23080916e-06 8.82793302e-06 9.52507435e-06 7.50074332e-06
      6.72305987e-06 6.58296676e-06 7.31204045e-06 7.96588029e-06
      1.27443609e-05 7.51780954e-06 7.80544451e-06 1.20276691e-05
      -1.77938398e-06 -1.18394541e-06 6.91455739e-07 -1.11544159e-06
      -1.59688011e-06 -1.13758722e-06 -4.08303822e-06 -3.63627692e-06
      -5.91868229e-07 3.06344350e-06 2.64498749e-06 2.12221175e-06
      2.28260660e-06 3.71054034e-06 1.79737594e-06 -1.22293307e-06
      -8.12651024e-07 -2.47778644e-06 -4.67585278e-06 -5.27318116e-06
      -6.46072749e-06 3.01589102e-06 3.80063261e-06 2.13787484e-06
      2.01784906e-06 2.82111387e-06 1.01086448e-06 1.40255122e-06
      9.17062891e-07 -5.45661806e-07 -3.85292560e-06 -4.00728550e-06
      -4.77594494e-06 -6.17705518e-06 -3.73044554e-06 -3.50976120e-06
      4.97266956e-06 4.45152273e-06 5.19405512e-06 -1.14541638e-06
      9.50653156e-09 -1.24524195e-06 4.60617412e-06 4.72336978e-06
      2.92048639e-06 1.93483047e-05 1.82252934e-05 1.64205630e-05
      1.25591150e-05 1.05676872e-05 6.95746212e-06 1.17529498e-05
      1.02465110e-05 7.00441569e-06 -2.27559607e-08 -2.19561684e-06
      -4.90659568e-06 -8.07462300e-07 -9.21354172e-07 -3.71661417e-06
      1.96284600e-05 1.98276921e-05 1.69470768e-05 8.05800937e-06
      8.12353574e-06 5.98335009e-06 4.10966777e-06 3.89189927e-06
      3.13394366e-06 9.42713541e-06 1.05072786e-05 9.79945889e-06
      2.97397060e-06 3.63728941e-06 6.28175803e-06 -4.71075327e-06
      -3.28796409e-06 1.06191806e-06 8.29331555e-08 3.34457866e-07
      3.84048826e-06 1.58202317e-06 1.43572493e-06 2.46469426e-06
      3.40192651e-06 3.62964033e-06 2.80069253e-06 3.98049770e-06
      3.29343993e-06 2.15012187e-06 -5.43927899e-06 -4.97346537e-06
      -4.50032485e-06 3.68288147e-06 8.67564358e-06 1.07890164e-05
      5.39127825e-07 1.65421750e-06 2.42405872e-06 -7.28244413e-06
      -7.07276422e-06 -6.80615722e-06 -1.78538612e-05 -1.75069999e-05
      -1.67037069e-05 -1.27659441e-05 -1.20576724e-05 -1.13692668e-05
      -1.15478542e-05 -8.99824681e-06 -8.86852376e-06 -1.15442836e-05
      -9.13557506e-06 -8.23502614e-06 -8.42825557e-06 -5.95402935e-06
      -4.48294031e-06 -5.87278237e-06 -3.03544721e-06 -6.23697872e-07
      -4.22784797e-06 -6.75010483e-08 2.28004092e-06 -8.55399503e-06
      -5.72298677e-06 -3.64645689e-06 -8.44882197e-06 -4.93872085e-06
      -3.63647086e-06 -3.79707535e-06 -1.42650265e-06 1.12674877e-06
      9.56432473e-07 1.88586876e-06 3.35089385e-06 3.66250197e-06
      4.54541350e-06 6.44179909e-06 -3.39971643e-06 -2.55370173e-06
      -1.36221365e-06 1.33790707e-06 6.65337211e-07 2.45851265e-06
      1.07344829e-06 1.28285080e-06 4.88457727e-06 3.44463251e-06
      3.54491726e-06 6.09714516e-06 2.63220727e-06 2.73199817e-06
      5.12603810e-06 5.60092712e-06 6.55669692e-06 8.67474955e-06
      6.40684846e-07 3.39215057e-06 5.39628854e-06 3.96910309e-06
      6.89591843e-06 1.00523948e-05 7.31617638e-06 1.05934150e-05
      1.36341696e-05 1.49495745e-05 1.56452516e-05 1.64645608e-05
      6.83948747e-06 7.12168867e-06 7.81869767e-06 1.24006719e-05
      1.27894873e-05 1.26458808e-05 1.03224556e-05 1.06370144e-05
      1.16822030e-05 6.64992967e-06 6.87163993e-06 7.46745354e-06
      3.59664364e-06 3.26758777e-06 3.55039720e-06 5.72433328e-06
      5.33832281e-06 4.81050029e-06 3.62455376e-06 5.75981267e-06
      7.83489395e-06 2.16489821e-06 3.28504393e-06 4.72935835e-06
      2.42982082e-06 2.35380867e-06 1.02950321e-06 6.82095970e-06
      7.48606999e-06 6.01272586e-06 4.77347930e-06 4.40221038e-06
      2.38092480e-06 6.49929643e-06 6.89072340e-06 5.66931112e-06
      -6.24540053e-06 -4.91407400e-06 -4.26703537e-06 7.72763769e-07
      3.36669245e-06 3.31171282e-06 8.59854367e-07 1.98240741e-06
      1.01917749e-06 2.16524629e-08 1.49620598e-06 2.50148531e-07
      -5.24364850e-07 6.61398246e-07 -2.84210699e-07 4.80302106e-06
      5.80314963e-06 4.67583322e-06 -1.12793975e-06 -2.81738608e-07
      -3.11684659e-07 -5.44493423e-06 -5.07134882e-06 -5.13217037e-06
      6.88914633e-06 8.09249468e-06 7.18718866e-06 5.57565897e-07
      1.34508082e-06 -7.02086538e-07 1.25289553e-05 1.28858219e-05
      9.90548415e-06 1.94150725e-05 1.94910263e-05 1.65924594e-05
      1.30258823e-05 1.18592716e-05 9.32571857e-06 9.58883538e-06
      9.71252393e-06 7.11775738e-06 5.13575571e-07 -5.66009930e-07
      -3.27331713e-06 4.96364964e-06 6.02720820e-06 3.05593198e-06
      1.44918349e-05 1.44297665e-05 1.23124637e-05 3.75714626e-06
      4.76728928e-06 3.43848092e-06 9.34203672e-06 8.63313744e-06
      7.33493243e-06 1.01633259e-05 1.11699628e-05 9.46304954e-06
      1.20867242e-06 1.45088984e-06 5.00644865e-06 -2.00702402e-07
      2.35650327e-06 7.74897853e-06 -4.82958421e-06 -3.61391949e-06
      1.49379241e-06 2.89338777e-06 4.67631162e-06 6.17197702e-06
      1.78421703e-06 2.76312903e-06 2.98473265e-06 3.20455638e-06
      3.19945229e-06 2.43552290e-06 -8.29947840e-06 -7.99101963e-06
      -7.17716603e-06 -3.67556959e-06 -1.17597574e-06 5.11397502e-07
      -4.53375287e-06 -2.20088964e-06 -1.72574494e-06 -9.99552230e-06
      -9.96342987e-06 -1.00791631e-05 -1.70896092e-05 -1.57412123e-05
      -1.39769536e-05 -1.01963324e-05 -8.14321993e-06 -7.09220467e-06
      -8.35830815e-06 -6.36515642e-06 -5.39825032e-06 -1.00239149e-05
      -7.41160920e-06 -6.73338081e-06 -9.25490895e-06 -6.55496888e-06
      -5.19477726e-06 -6.34143817e-06 -3.76689968e-06 -2.75409639e-06
      -4.05952551e-06 4.26502247e-08 7.12387930e-07 -7.12228439e-06
      -4.78241827e-06 -3.02460467e-06 -1.11824202e-05 -8.90687807e-06
      -7.04888407e-06 -8.83877692e-06 -6.05345667e-06 -4.40384974e-06
      -6.92672438e-06 -4.05388300e-06 -2.37329164e-06 -1.36818007e-05
      -1.15790326e-05 -9.66799143e-06 -1.27178118e-05 -1.17261179e-05
      -7.91480943e-06 -4.96078974e-06 -4.34969706e-06 -1.89955949e-06
      3.82869348e-06 4.47133471e-06 5.42526777e-06 3.44800947e-06
      5.65782557e-06 7.74679211e-06 -1.69697864e-06 6.80041524e-07
      4.11029623e-06 5.30894977e-06 7.69630151e-06 1.19542383e-05
      -5.69596659e-06 -2.27023543e-06 2.22082053e-06 3.95948655e-06
      7.84661279e-06 1.04616392e-05 9.49787045e-06 1.08196482e-05
      1.12756279e-05 1.18223079e-05 1.40325310e-05 1.58492949e-05
      8.70247459e-06 1.07018586e-05 1.12466641e-05 1.01516007e-05
      1.17157506e-05 1.22861484e-05 -4.55170209e-07 2.53240017e-07
      7.88074772e-07 -5.62944649e-07 1.73569788e-06 3.30972625e-06
      -1.81434370e-06 4.15925456e-07 1.65659537e-06 -8.05897162e-06
      -6.27675718e-06 -5.08674657e-06 1.14127840e-06 4.62162461e-06
      7.60475768e-06 -4.14184751e-06 -9.86669761e-07 3.70589447e-07
      -1.69882742e-06 9.87066187e-07 1.64027244e-06 -9.18517173e-07
      9.01542876e-07 2.25831104e-06 1.60386242e-06 1.80763129e-06
      1.05603738e-06 6.84679208e-06 7.18213187e-06 5.75704507e-06
      -7.00356622e-07 2.89574996e-06 1.79551591e-06 -8.10043457e-06
      -3.29584077e-06 8.06491940e-08 -1.93406731e-06 4.11334128e-07
      4.17925804e-07 -9.86411032e-06 -6.64226445e-06 -6.36153891e-06
      -2.79045395e-07 2.60329125e-06 3.19254650e-06 -3.79231028e-06
      -1.88458500e-06 -1.30957631e-06 -6.38061920e-06 -4.27801615e-06
      -2.91947867e-06 -4.59055991e-06 -9.60493594e-07 -6.63198705e-07
      2.74951481e-06 5.29267754e-06 5.10514838e-06 -2.32243860e-06
      3.97898162e-07 -7.13055556e-07 1.53703313e-05 1.70922904e-05
      1.42190293e-05 1.45883705e-05 1.46539815e-05 1.18351272e-05
      1.06069738e-05 1.03006905e-05 7.64836841e-06 -5.76553987e-07
      -2.77826047e-07 -2.47195021e-06 -1.08134793e-06 -2.55123018e-06
      -5.83802284e-06 3.82190001e-06 2.37434278e-06 -1.33528283e-06
      1.30422713e-05 1.49748830e-05 1.38623036e-05 5.06105744e-06
      6.63057835e-06 6.49844151e-06 4.55792906e-06 6.42274017e-06
      6.57578676e-06 7.00193050e-06 7.07308573e-06 6.69922383e-06
      5.30526631e-06 5.62535752e-06 1.08510285e-05 4.33253672e-06
      7.03280148e-06 1.17037380e-05 5.01775776e-06 6.64968593e-06
      1.13184269e-05 1.06154198e-06 7.88923501e-07 2.90678622e-06
      5.36169694e-07 8.85758880e-07 9.09897210e-07 3.11816370e-06
      1.25035137e-06 1.82914910e-08 -7.93134859e-06 -8.68245752e-06
      -8.77857383e-06 -9.00442319e-06 -7.65987716e-06 -6.45449518e-06
      -1.54332265e-05 -1.51887389e-05 -1.50867709e-05 -1.80792649e-05
      -1.79784456e-05 -1.75675705e-05 -1.84210930e-05 -1.83747652e-05
      -1.80251191e-05 -1.74421402e-05 -1.60380459e-05 -1.55698854e-05
      -1.12487533e-05 -8.38409687e-06 -7.30214333e-06 -8.12258077e-06
      -5.40302699e-06 -3.87214004e-06 -9.20500224e-06 -6.80602852e-06
      -4.94143933e-06 -7.91150978e-06 -7.47685999e-06 -7.44345334e-06
      7.91078890e-07 2.19969525e-06 2.01856938e-06 -9.52780920e-06
      -6.40866438e-06 -5.18010074e-06 -1.96880592e-05 -1.81338091e-05
      -1.75077530e-05 -1.59480915e-05 -1.24884409e-05 -1.19151537e-05
      -9.80387176e-06 -7.33832258e-06 -6.31373950e-06 -6.81869642e-06
      -4.63302331e-06 -2.41850034e-06 -3.40630140e-06 -1.49463489e-07
      3.72098998e-06 -2.22324070e-06 5.58256033e-07 1.76343758e-06
      4.56674024e-06 6.99882048e-06 7.77153400e-06 1.74090371e-06
      4.73410137e-06 5.97485587e-06 -1.08073095e-06 2.07655467e-06
      4.10972780e-06 2.37414315e-06 5.72114095e-06 7.96391669e-06
      -4.03700369e-06 6.57617818e-08 3.86098236e-06 -1.88221179e-06
      1.92454922e-06 2.93231210e-06 7.60725788e-06 1.11663512e-05
      1.27951180e-05 5.70962720e-06 7.97791472e-06 7.25909285e-06
      5.67609914e-06 9.67780488e-06 8.65382481e-06 2.73495289e-07
      2.64172945e-06 4.25387134e-06 -9.23231596e-07 1.25135398e-06
      1.13527142e-06 -1.22768097e-06 5.82240204e-07 2.84571024e-06
      6.69892017e-08 2.97770475e-06 5.86110536e-06 -5.26352460e-06
      -3.11575832e-06 -1.01113767e-06 7.73096588e-07 5.20055119e-06
      8.37319021e-06 -4.42949522e-06 -4.22860751e-07 2.59734475e-06
      -8.32325713e-06 -3.66530094e-06 1.57273135e-07 1.89691502e-06
      6.75350066e-06 8.09571065e-06 -4.04462480e-06 8.13968029e-07
      2.82806127e-06 -1.00752623e-05 -5.91174648e-06 -4.22863059e-06
      -9.51617130e-06 -4.21846516e-06 -2.91133824e-06 -6.73351951e-06
      -3.22759342e-06 -2.18348578e-06 -8.47369029e-06 -5.92880087e-06
      -6.13481097e-06 -4.09547920e-06 6.06436572e-08 4.13374238e-07
      -6.69881047e-06 -4.65548419e-06 -4.65361654e-06 -8.85460031e-06
      -6.47553270e-06 -6.05074183e-06 -1.72124473e-05 -1.51562044e-05
      -1.41609917e-05 -7.95466076e-06 -5.34692208e-06 -5.84860027e-06
      -9.72073576e-06 -8.23424216e-06 -7.54385974e-06 -1.10235021e-06
      1.01379101e-06 1.06896863e-07 4.00278350e-06 7.19301852e-06
      6.88672435e-06 -2.81608209e-06 -9.17239390e-07 -9.96630206e-07
      -1.34861000e-06 -1.88497239e-07 -9.80169716e-07 -5.89836236e-06
      -3.41948680e-06 -3.56933833e-06 -9.12822452e-06 -8.77749699e-06
      -8.82465611e-06 4.10331131e-06 4.03712693e-06 2.37735321e-06
      5.18978459e-06 5.52770962e-06 5.23268909e-06 1.79578171e-06
      1.94727613e-06 2.34086747e-06 4.02810247e-06 4.28811427e-06
      4.93166772e-06 1.43381635e-06 2.10633016e-06 2.71822205e-06
      8.81305004e-06 1.04503288e-05 1.45544882e-05 -1.93202837e-07
      1.62759693e-06 6.01743614e-06 2.94018173e-06 3.64175185e-06
      6.27699910e-06 -3.42637463e-06 -2.89431455e-06 1.77501761e-07
      -1.62293929e-06 -1.22884262e-06 -8.01447811e-07 9.31302293e-06
      8.16049578e-06 7.05788079e-06 6.29315218e-06 4.63574770e-06
      3.49551533e-06 1.17681759e-06 2.24999917e-06 2.48780589e-06
      -3.64226275e-06 -3.13613782e-06 -6.61729871e-07 -1.47845140e-05
      -1.41865266e-05 -1.17451145e-05 -2.16306162e-05 -2.12361629e-05
      -2.00980994e-05 -1.91256968e-05 -1.64380745e-05 -1.47608280e-05
      -1.87502628e-05 -1.57141130e-05 -1.40484362e-05 -1.56124643e-05
      -1.20850918e-05 -9.49163496e-06 -1.27962685e-05 -9.14044358e-06
      -6.57280771e-06 -7.98433484e-06 -5.05114758e-06 -3.92807624e-06
      8.33072875e-07 2.83983718e-06 2.45644515e-06 -7.58577380e-06
      -3.75487093e-06 -2.92399591e-06 -5.13814666e-06 -3.52911502e-06
      -2.33590049e-06 -5.92945025e-06 -1.42277781e-06 1.11003624e-06
      -1.35259388e-05 -9.03528598e-06 -7.62899845e-06 -2.91294486e-06
      2.23169468e-06 3.88472290e-06 1.66181235e-06 6.54375435e-06
      8.63046535e-06 9.58014311e-07 3.80551478e-06 6.75475030e-06
      -4.78310449e-06 -4.82822998e-07 2.04742264e-06 -1.09866887e-05
      -7.09293317e-06 -5.34991341e-06 -3.86473994e-06 -3.15031826e-07
      8.16274166e-07 3.77914080e-06 7.88466150e-06 8.52368976e-06
      1.92255357e-06 6.19782304e-06 6.64330628e-06 3.53332780e-06
      7.38449853e-06 8.00794169e-06 1.38504208e-06 5.03776755e-06
      6.34863318e-06 9.60215971e-07 2.58198293e-06 3.29406043e-06
      1.23337195e-05 1.41636801e-05 1.28847569e-05 -2.59795371e-07
      1.72797058e-06 1.27434066e-06 -9.47077388e-06 -7.27080214e-06
      -7.45747684e-06 -1.40620887e-05 -1.30612689e-05 -1.26415944e-05
      -1.41724267e-05 -1.21237672e-05 -7.45019679e-06 -7.06174660e-06
      -5.88886132e-06 -3.15516786e-06 -3.20561435e-06 1.04959668e-06
      5.61760680e-06 4.58708837e-06 9.61778278e-06 1.41341752e-05
      -2.29525267e-06 2.95321365e-06 6.57444889e-06 1.07432516e-05
      1.53214878e-05 1.62658707e-05 -4.68934059e-06 5.18087120e-07
      1.09354494e-06 -4.20817878e-06 4.45463797e-07 5.67843699e-07
      -5.49778770e-06 2.93022310e-07 9.90040121e-07 -3.09961024e-06
      2.62428841e-07 1.61866467e-07 -8.00966336e-06 -6.74845160e-06
      -7.50734307e-06 -8.29529927e-06 -7.32367926e-06 -8.23552273e-06
      -5.19980495e-06 -4.07577545e-06 -4.87668149e-06 -8.59407828e-06
      -8.31540365e-06 -8.25142615e-06 -1.26774748e-05 -1.09945631e-05
      -1.05439785e-05 -1.24278740e-05 -9.44591102e-06 -9.01048406e-06
      -1.32275600e-05 -1.08449058e-05 -1.05307372e-05 -1.07549522e-05
      -9.00089799e-06 -9.87865496e-06 -1.61866410e-06 1.27519399e-06
      1.43713203e-06 -2.96668418e-06 -5.70512157e-07 -7.23750532e-07
      -2.10484473e-06 -1.17471579e-07 1.62816974e-07 -7.17976172e-06
      -4.85245801e-06 -3.48138724e-06 -8.22477796e-06 -6.69456176e-06
      -6.55387794e-06 6.06484627e-06 7.62700574e-06 6.83679718e-06
      1.12635034e-05 1.29776818e-05 1.28618085e-05 1.97025770e-06
      2.10275721e-06 2.68130680e-06 -5.00062697e-07 -1.37487552e-06
      -1.67660744e-06 2.37386848e-06 2.70385112e-06 2.75752291e-06
      1.15075936e-05 1.17681502e-05 1.40799120e-05 5.10704758e-08
      6.73892764e-09 3.57298245e-06 1.97845839e-06 1.39679116e-06
      5.11232474e-06 3.21924153e-06 3.65125334e-06 5.25527184e-06
      4.12660665e-06 3.78340860e-06 3.40815814e-06 8.48943819e-06
      6.75971205e-06 4.51735923e-06 2.22789549e-06 1.47375442e-06
      1.93411051e-06 -5.70048257e-07 6.08040580e-07 2.10482108e-06
      -7.43060309e-06 -7.03166370e-06 -4.95856784e-06 -1.40464172e-05
      -1.44892947e-05 -1.32941732e-05 -1.85951067e-05 -1.89234324e-05
      -1.88384020e-05 -1.87587157e-05 -1.83654556e-05 -1.73458520e-05
      -1.60514301e-05 -1.51601562e-05 -1.43502457e-05 -5.58855845e-06
      -2.87629496e-06 -1.67361998e-06 -1.07674969e-05 -8.53876645e-06
      -6.24666200e-06 -9.46653472e-06 -6.62348657e-06 -3.47410150e-06
      -3.18614525e-06 -2.53426009e-07 1.98269822e-06 -3.72219688e-06
      -1.00238788e-06 1.08839708e-06 5.47636546e-06 7.47075683e-06
      8.19181514e-06 1.86917396e-06 5.90086756e-06 6.99133398e-06
      1.17674188e-06 5.55216911e-06 8.60663113e-06 -1.90923970e-06
      2.03088030e-06 4.28896101e-06 -4.82255416e-07 3.87668661e-06
      4.94472988e-06 5.00425949e-06 8.87157330e-06 1.00576999e-05
      -6.82750533e-06 -4.72710326e-06 -2.16170952e-06 1.05935951e-05
      1.43099542e-05 1.42350036e-05 3.54686836e-06 6.76396530e-06
      7.88635862e-06 9.86575378e-06 1.39112981e-05 1.53442870e-05
      8.17303953e-06 1.19125916e-05 1.41361988e-05 2.04977891e-06
      7.17359444e-06 8.96514211e-06 5.32163313e-06 1.02375288e-05
      1.13345423e-05 8.86167345e-06 1.06977550e-05 8.77987532e-06
      5.58260444e-06 6.55189069e-06 4.47168759e-06 4.70745954e-06
      5.14891371e-06 3.67898770e-06 -3.61457387e-06 -4.29831834e-06
      -7.20502612e-06 -2.56960971e-06 -2.58562250e-06 -6.73228953e-07
      -2.62728190e-06 -2.54442028e-07 -3.24398175e-09 -2.20038260e-07
      1.75395189e-06 3.15664943e-06 -2.46053514e-06 1.89819264e-06
      5.73985517e-06 -6.95911513e-06 -2.04179742e-06 2.74534614e-06
      -5.05640128e-06 -2.39467397e-07 2.73274327e-06 1.82170140e-06
      6.39047630e-06 7.82568986e-06 -4.00641102e-06 5.16755847e-07
      7.94126606e-07 -1.47759238e-05 -9.30412079e-06 -8.97068912e-06
      -1.49370626e-05 -7.98849032e-06 -7.34309697e-06 -1.05736208e-05
      -5.90060108e-06 -4.69492215e-06 -1.09917810e-05 -6.41525639e-06
      -5.40280416e-06 -8.86875841e-06 -6.98492477e-06 -7.54312305e-06
      -1.10962283e-05 -9.64643095e-06 -1.00093230e-05 -5.83157771e-06
      -4.66333904e-06 -6.89373928e-06 -7.64610922e-06 -7.41265194e-06
      -9.92711011e-06 -6.34252956e-06 -3.72425075e-06 -4.38949746e-06
      -1.03536331e-05 -7.13104600e-06 -7.12851579e-06 -1.43442385e-05
      -1.03791299e-05 -1.07857149e-05 -9.61979094e-06 -6.26248266e-06
      -6.11398900e-06 -9.18526621e-06 -5.95053143e-06 -6.25281427e-06
      -5.74614205e-06 -2.92686036e-06 -1.96036103e-06 -1.11245345e-05
      -8.24761901e-06 -7.24832898e-06 -7.20287335e-06 -6.68201619e-06
      -7.90171725e-06 1.46692610e-05 1.45567956e-05 1.28816528e-05
      1.16782312e-05 1.16625870e-05 9.96453127e-06 9.04336684e-06
      7.95229698e-06 5.97291864e-06 1.47039636e-05 1.36567060e-05
      1.23208620e-05 1.20926034e-05 1.19640408e-05 1.15070907e-05
      1.33679487e-06 5.48129890e-07 1.48449101e-06 -5.55916313e-06
      -5.45829016e-06 -1.22460403e-06 2.73381090e-07 2.30646819e-07
      4.46134300e-06 -1.01798310e-06 -2.04838875e-06 2.02520164e-06
      3.02808530e-06 3.17061313e-06 4.88687056e-06 -5.19434934e-07
      -1.51220047e-06 -1.31656498e-06 2.15832642e-06 9.86098257e-07
      1.40535599e-06 2.33956894e-06 3.12389375e-06 5.63434469e-06
      2.95361315e-06 3.30856096e-06 6.24310633e-06 1.72057833e-06
      6.73027330e-07 1.78264725e-06 -9.33539559e-06 -1.03354232e-05
      -9.19724971e-06 -1.45750373e-05 -1.40248549e-05 -1.15984085e-05
      -1.49754123e-05 -1.32971645e-05 -1.06845173e-05 -1.58650364e-05
      -1.30037124e-05 -9.33946103e-06 -4.14198757e-06 -1.80431300e-06
      -2.74947155e-07 -9.99646909e-06 -7.52039205e-06 -3.63504591e-06
      -5.30814214e-06 -2.59309377e-06 9.20075934e-07 -4.51368487e-06
      -2.35051789e-06 1.81051178e-06 -1.23868640e-05 -1.02945951e-05
      -7.12185692e-06 -4.87451643e-06 -9.19130343e-07 3.42837325e-06
      -2.21027312e-06 2.91849824e-06 7.05831417e-06 -7.98415670e-07
      3.65765618e-06 5.73765737e-06 -1.24116605e-06 2.81958773e-06
      4.25847111e-06 -6.03031549e-06 -2.60308093e-06 -1.89241962e-06
      -1.69460873e-06 2.01185230e-06 2.82444603e-06 -3.29612340e-06
      1.12347846e-06 4.06678737e-06 -4.55241297e-06 -9.32739567e-07
      3.29331215e-07 4.83490021e-06 9.03467117e-06 9.65575418e-06
      -5.97998633e-06 -1.53349526e-06 -8.02876059e-08 8.25518873e-06
      1.34065613e-05 1.39125823e-05 8.34294156e-07 7.33132174e-06
      8.52365247e-06 5.88881221e-06 1.09128687e-05 1.15333332e-05
      7.04759259e-06 8.44728220e-06 7.28883197e-06 6.05581363e-06
      8.21356662e-06 7.17609510e-06 2.17086972e-06 3.61463640e-06
      3.52727989e-06 1.93718984e-06 4.02114620e-06 4.82968699e-06
      6.09526614e-06 9.49223340e-06 1.24984945e-05 2.84642260e-06
      4.50816060e-06 5.00991291e-06 1.68263171e-06 5.55580027e-06
      8.63770583e-06 1.01666292e-05 1.46984039e-05 1.56506467e-05
      1.08678944e-06 5.77352148e-06 8.09406538e-06 -3.60909712e-06
      2.42489546e-06 4.65496805e-06 -1.20798386e-05 -7.76978959e-06
      -6.49908361e-06 -6.40697135e-06 -2.61674109e-06 -2.00660202e-06
      -8.85080317e-06 -5.27927568e-06 -6.71898079e-06 -1.04911851e-05
      -5.15345027e-06 -4.75350134e-06 -1.42675890e-05 -9.16237332e-06
      -1.14738659e-05 -1.16266347e-05 -6.01983629e-06 -6.49501726e-06
      -6.93499760e-06 -3.79531866e-06 -5.33301773e-06 -1.39465174e-05
      -1.31339320e-05 -1.55429752e-05 -1.16387218e-05 -1.11061017e-05
      -1.27566746e-05 -7.02603165e-06 -3.82599910e-06 -3.45848457e-06
      -1.43804828e-05 -1.07794413e-05 -1.04056980e-05 -1.78050741e-05
      -1.41362261e-05 -1.36033605e-05 -3.99176997e-06 -1.66242671e-06
      -1.69040709e-06 -6.32194860e-06 -3.94717472e-06 -4.26516090e-06
      -5.00258830e-06 -1.48785341e-06 -2.51572686e-07 -3.79755511e-06
      -2.48101037e-06 -1.13029046e-06 2.73450814e-06 3.80469191e-06
      3.00238935e-06 1.54916597e-05 1.51334307e-05 1.28184083e-05
      1.50960368e-05 1.44998266e-05 1.29028167e-05 1.07846927e-05
      9.69728717e-06 7.66944959e-06 1.14065970e-05 1.01148235e-05
      9.00438499e-06 1.94726053e-05 1.70465737e-05 1.48796662e-05
      -8.10378151e-06 -8.47547835e-06 -6.54908990e-06 -1.65825368e-05
      -1.66774025e-05 -1.23739637e-05 -9.50264712e-06 -8.57649593e-06
      -2.85680085e-06 -2.35206835e-06 -2.39573069e-06 1.67840062e-06
      2.36137652e-07 3.78832482e-07 3.20624895e-06 4.88222940e-06
      5.34495302e-06 5.10557993e-06 1.09987525e-06 1.30330102e-06
      5.91276887e-07 5.84932650e-06 7.09039796e-06 8.34008461e-06
      1.25740316e-05 1.37793077e-05 1.56221649e-05 -3.82884735e-07
      -4.30945050e-07 1.76822743e-06 -9.03814544e-06 -8.58537896e-06
      -6.75264891e-06 -4.09713175e-06 -2.97583370e-06 -4.84169504e-07
      -1.96461110e-06 -9.56164854e-07 9.75261173e-07 -2.39789370e-06
      -1.09629912e-06 9.85201041e-07 -6.07458742e-06 -3.96926589e-06
      -1.12104419e-06 -7.07966547e-06 -3.69209761e-06 -1.23974485e-06
      -1.20095883e-05 -9.67732558e-06 -5.63065896e-06 -7.10138647e-06
      -4.27568784e-06 -7.37351911e-07 -6.02800037e-06 -2.95890663e-06
      -3.62043380e-07 -4.67423342e-06 -2.38711414e-06 -1.13167539e-06
      -2.69427915e-06 1.47248443e-06 2.98574400e-06 -1.07996220e-05
      -7.15208398e-06 -6.03458648e-06 -2.63806032e-06 1.49005098e-06
      2.98567943e-06 4.74426861e-06 1.01744808e-05 1.28933716e-05
      3.24410803e-06 7.79681341e-06 1.05710842e-05 -2.75749107e-06
      1.93256665e-06 3.22152937e-06 -1.37764400e-05 -9.51225866e-06
      -4.97506608e-06 2.43892032e-06 7.55243946e-06 9.00949999e-06
      1.83968257e-06 5.56169698e-06 7.20604476e-06 3.75229604e-07
      5.42462612e-06 7.31362888e-06 -1.73652825e-06 3.44291811e-06
      5.05415483e-06 7.63282515e-06 1.33825279e-05 1.45652648e-05
      4.84995098e-06 9.79143715e-06 1.03674820e-05 1.95966804e-05
      2.48508768e-05 2.71999797e-05 5.82608072e-06 1.03685152e-05
      1.49499274e-05 6.95749350e-06 1.12701346e-05 1.48291610e-05
      7.93252730e-06 1.30952249e-05 1.78955634e-05 -3.80334859e-06
      -2.89858377e-07 2.14103579e-06 4.11960218e-06 9.35623575e-06
      1.47199771e-05 2.41442365e-07 4.39059386e-06 8.63012883e-06
      3.35329645e-07 4.62371599e-06 7.89412024e-06 -1.30808974e-06
      3.37958204e-06 6.08996879e-06 -7.25507061e-06 -3.71800888e-06
      -3.58221291e-06 -2.80012932e-06 1.57905720e-06 1.18282981e-06
      -1.56135957e-06 2.30331079e-06 2.22477615e-06 -1.13537026e-05
      -7.54319308e-06 -8.96554502e-06 -1.22162701e-05 -7.98203200e-06
      -1.10602477e-05 -1.30654953e-05 -8.93237666e-06 -9.38831363e-06
      -1.21465910e-05 -8.00517591e-06 -8.13579027e-06 -1.08986924e-05
      -8.90136926e-06 -8.98829694e-06 -1.59106930e-05 -1.36534709e-05
      -1.46099837e-05 -1.17937552e-05 -9.06876267e-06 -9.80531513e-06
      -8.82416953e-06 -5.68593896e-06 -6.18862168e-06 -4.04395269e-06
      -3.17414788e-06 -3.93175560e-06 -1.15155626e-06 -1.79814413e-06
      -3.59339356e-06 4.49236813e-06 4.80164772e-06 4.03780950e-06
      -2.33378819e-06 -2.94817778e-06 -3.86629426e-06 2.06389359e-06
      7.46906380e-07 -7.95880794e-07 3.20044592e-06 6.21774973e-07
      -3.32005607e-06 6.36911182e-06 2.78068023e-06 -2.10557755e-06
      7.35718231e-06 4.51152118e-06 1.08805318e-06 5.92589367e-06
      9.93075105e-07 -3.65910410e-06 7.04810736e-06 2.61832292e-06
      -8.83690802e-07 1.17951167e-05 8.76289141e-06 5.56622899e-06
      -7.16019531e-06 -8.09266476e-06 -7.42195380e-06 -1.74293182e-05
      -1.72758591e-05 -1.24132821e-05 -1.42555336e-05 -1.27174935e-05
      -6.46107264e-06 -3.66299173e-06 -3.78581512e-06 1.02264426e-06
      -4.04191223e-06 -2.94839788e-06 -1.68130384e-07 1.31230786e-06
      1.23888310e-06 2.38666735e-06 6.52243489e-06 6.57224746e-06
      6.31673402e-06 -3.43818130e-07 2.86561061e-07 5.56223142e-07
      4.20474726e-06 5.56246550e-06 6.81292204e-06 -3.56852615e-06
      -2.72873535e-06 -1.74645186e-06 -7.13084864e-06 -6.70732197e-06
      -5.73572243e-06 -9.16020326e-06 -7.52340566e-06 -5.62351306e-06
      -1.28976608e-05 -1.06797961e-05 -8.63782498e-06 3.81430027e-06
      6.01484453e-06 8.06954449e-06 1.13643055e-05 1.30364360e-05
      1.33873400e-05 4.86183990e-06 6.97966425e-06 6.70973941e-06
      -1.10472888e-06 1.06383402e-06 3.55893690e-06 1.29071520e-06
      4.64124378e-06 7.87761564e-06 -4.58142540e-06 -1.58973057e-06
      -2.92998692e-07 8.85832287e-06 1.28637830e-05 1.41723740e-05
      4.20180595e-06 8.62034994e-06 1.09156299e-05 6.58288855e-06
      1.01162441e-05 1.12021689e-05 -1.61136586e-06 3.58543139e-06
      5.37352662e-06 2.47689854e-06 8.26468477e-06 1.01422256e-05
      2.22437757e-06 8.10497932e-06 1.00007583e-05 -1.11631027e-06
      4.74596800e-06 6.25078474e-06 -4.15894920e-06 1.61123364e-06
      6.44962438e-06 -4.18513855e-06 1.21307744e-06 2.67629730e-06
      -7.07795652e-06 -2.46967784e-06 2.64536254e-07 -8.32685782e-06
      -2.99245971e-06 2.23131588e-06 -5.45103921e-06 -6.67974859e-07
      7.01855527e-07 1.48247909e-06 7.45713533e-06 7.90684862e-06
      -5.25044015e-06 6.89971841e-07 1.04561343e-06 1.24493554e-05
      1.94608801e-05 1.93392480e-05 3.09128814e-06 9.83414429e-06
      1.03493448e-05 1.57533327e-06 8.62179331e-06 9.42923089e-06
      7.90389493e-07 7.78384583e-06 1.10115698e-05 -5.91508751e-06
      -1.16806950e-06 1.14360728e-06 4.41566635e-06 1.00154057e-05
      1.39337844e-05 3.90769537e-06 1.00914158e-05 1.49739362e-05
      1.10489907e-06 7.09745973e-06 1.15995963e-05 7.01038800e-07
      6.28662519e-06 1.02870408e-05 -9.26187931e-06 -4.37997005e-06
      -2.64900018e-06 -1.14481836e-05 -6.39757855e-06 -6.31409603e-06
      -3.39727990e-06 6.89851390e-07 8.38797689e-07 -6.05668674e-06
      -5.96018140e-07 -1.96341261e-06 -1.15514813e-05 -6.85262330e-06
      -7.24857910e-06 -1.43746356e-05 -8.94750792e-06 -8.85790996e-06
      -9.21266655e-06 -3.38223026e-06 -3.85002795e-06 -1.15930152e-05
      -8.33575632e-06 -8.79247455e-06 -4.45006208e-06 -9.66407129e-07
      -4.51580718e-07 4.69297993e-06 8.34007733e-06 7.76155321e-06
      -1.87715693e-06 -6.24268068e-07 -2.02724209e-06 -1.17366435e-05
      -1.14036620e-05 -1.32913265e-05 2.17907518e-06 5.71599514e-07
      -2.01687749e-06 2.22987046e-06 1.98776775e-06 4.60587835e-09
      3.24394421e-07 -6.23929566e-07 -2.92568438e-06 7.37571190e-06
      2.47823596e-06 -2.89082186e-06 -2.48310187e-07 -4.93528205e-06
      -9.60190573e-06 6.74787270e-06 1.42652971e-06 -5.14600742e-06
      4.41922248e-06 -1.36723156e-06 -7.36681841e-06 -7.24750009e-07
      -7.05827915e-06 -1.22459796e-05 2.26513771e-06 -2.82945712e-06
      -6.17335309e-06 6.76066884e-06 2.96637882e-06 -1.05277002e-06
      -2.02808133e-05 -2.15386499e-05 -1.97760746e-05 -2.24119121e-05
      -2.24581709e-05 -1.92264779e-05 -1.30067656e-05 -1.22300135e-05
      -7.63902153e-06 -2.26967109e-06 -2.19490698e-06 1.20499510e-06
      1.14254169e-06 2.16637568e-06 4.75435991e-06 3.54581675e-06
      3.57516228e-06 4.80224116e-06 5.91097478e-06 6.27379859e-06
      6.51537084e-06 -4.81842244e-06 -4.79565915e-06 -5.33876891e-06
      1.97955660e-06 3.34086371e-06 3.87463069e-06 -8.03755484e-06
      -7.59099294e-06 -6.81861457e-06 -9.82904294e-06 -9.54688585e-06
      -9.53871677e-06 -1.18392463e-05 -1.08033673e-05 -9.54712777e-06
      -5.64748962e-06 -3.41938903e-06 -1.63137474e-06 5.55446695e-06
      9.00793293e-06 1.02243303e-05 1.00779300e-06 4.13816952e-06
      4.82340829e-06 2.30726982e-06 5.30876059e-06 4.40916210e-06
      -1.82563258e-06 -2.33216454e-07 1.82086649e-06 -5.33948287e-06
      -1.32399737e-06 3.15970874e-06 -2.45687625e-06 1.66217887e-06
      5.93915502e-06 2.26782390e-06 5.74636761e-06 4.56184171e-06
      6.29034093e-06 1.21250541e-05 1.25587521e-05 -1.22591769e-06
      5.79791094e-06 5.68097903e-06 1.93348728e-06 7.82403004e-06
      7.94946027e-06 -4.37715329e-07 6.03668877e-06 6.43680960e-06
      3.11236181e-06 8.93935612e-06 8.80190328e-06 5.04179070e-07
      5.23934705e-06 5.47690433e-06 -7.01755698e-06 -2.97416682e-06
      -6.35592130e-07 -1.67075228e-07 3.74637466e-06 2.55881446e-06
      1.97033251e-06 5.20615458e-06 4.35560332e-06 1.09487303e-07
      5.32518925e-06 3.03904585e-06 -6.40373355e-06 -1.37103939e-06
      -3.11463032e-06 -9.69062967e-06 -4.16091598e-06 -4.67278869e-06
      3.10542941e-06 8.48491709e-06 4.39255973e-06 -2.50047810e-06
      3.63484014e-06 2.57484385e-06 -5.43692477e-06 8.42382576e-07
      -1.23271479e-06 -7.53776885e-06 -1.04398737e-06 -1.44542196e-06
      1.02894655e-05 1.73599728e-05 1.75824480e-05 3.17225158e-06
      7.93558411e-06 7.95250526e-06 2.39278734e-06 7.64990364e-06
      9.63239654e-06 4.66326674e-06 1.14577851e-05 1.51542463e-05
      8.86496127e-06 1.64382582e-05 2.07782014e-05 5.92022525e-06
      1.25265215e-05 1.62543092e-05 -7.24566632e-07 4.37867129e-06
      4.79894470e-06 6.62762886e-07 6.12172289e-06 6.60510204e-06
      1.23789835e-06 9.26572829e-06 9.92662081e-06 6.89497099e-08
      7.93206254e-06 7.66028825e-06 -9.68082986e-06 -2.74431000e-06
      -1.64032872e-06 -6.59347734e-06 -2.86294238e-07 1.65770814e-07
      -4.88462183e-06 1.34683603e-07 9.84545991e-08 -7.11618713e-06
      -3.08040353e-06 -2.73986325e-06 -5.08657695e-06 -2.53530584e-06
      -3.42558337e-06 -2.97944075e-06 -1.90054180e-07 -5.29988142e-07
      2.93664380e-06 3.12463067e-06 1.49181017e-06 1.16674141e-06
      1.27221392e-06 -1.86131774e-06 -8.56895895e-06 -1.04083201e-05
      -1.26746318e-05 -1.14105669e-05 -1.41108831e-05 -1.69833802e-05
      -4.32063007e-06 -7.54542089e-06 -1.04851761e-05 1.14776640e-06
      -4.06842082e-06 -8.04233969e-06 3.18842808e-06 -2.97678685e-06
      -9.15263536e-06 1.89588445e-06 -5.25680605e-07 -4.65468338e-06
      -2.13912654e-06 -6.83883263e-06 -1.08035892e-05 -4.23364600e-06
      -9.60982470e-06 -1.34249776e-05 2.77902217e-07 -4.72974079e-06
      -6.64258960e-06 3.31411979e-06 1.54251225e-07 -4.23431544e-07
      -3.95497455e-06 -4.94297501e-06 -4.95236736e-06 -1.77660022e-05
      -1.82410040e-05 -1.68672013e-05 -7.74739055e-06 -8.31003490e-06
      -6.07851052e-06 2.91903035e-08 -5.12581778e-07 1.84615783e-06
      -2.91517904e-06 -1.82313170e-06 3.95723106e-07 3.35925779e-06
      2.77294748e-06 3.39921803e-06 3.25111205e-06 2.95147038e-06
      3.55801512e-06 1.94687004e-06 1.91706567e-06 7.61417709e-07
      5.07676930e-07 6.20251626e-07 1.48743041e-07 -5.61189154e-06
      -5.80452433e-06 -6.36871891e-06 -5.16183400e-06 -4.67192240e-06
      -5.22585469e-06 -9.54900315e-06 -8.34678667e-06 -7.71716077e-06
      -1.07135284e-05 -7.23790845e-06 -4.96161601e-06 -2.39986070e-06
      2.19316325e-06 4.00292311e-06 6.13417433e-06 1.02359327e-05
      1.02722288e-05 1.35282448e-06 4.27851683e-06 3.86495230e-06
      -9.37440200e-06 -5.43194710e-06 2.28779811e-07 -1.63685909e-05
      -1.06074895e-05 -7.22945424e-06 -5.28853934e-06 -2.10644839e-06
      -5.28502824e-06 1.38793109e-06 8.25497227e-06 8.01336409e-06
      3.93825076e-06 9.62784725e-06 9.03533237e-06 -6.74675221e-07
      5.12651877e-06 4.00265026e-06 -1.00609277e-05 -5.22924438e-06
      -6.92745516e-06 -4.12873214e-06 3.58504110e-07 -2.71397857e-06
      -2.32811362e-06 2.74882018e-06 -5.57160604e-07 6.88788759e-07
      5.11970939e-06 1.33961532e-06 -5.75407466e-06 -2.47816320e-06
      -5.16985210e-06 7.83616798e-08 3.38935047e-06 -9.69950520e-07
      -4.63111382e-06 -9.61196861e-07 -8.05831860e-06 -4.26537963e-06
      -3.19869429e-07 -7.14418684e-06 2.96822554e-06 6.48456898e-06
      -2.21970777e-06 -1.51317499e-05 -1.21882376e-05 -2.00621071e-05
      -6.06519552e-06 -1.10003521e-06 -9.56559961e-06 -9.00294890e-06
      -3.94662311e-06 -9.16846693e-06 -4.60175261e-06 8.23925575e-07
      -5.77946457e-06 -2.47482899e-06 2.95772702e-06 -2.31892113e-06
      -2.99292174e-06 3.07590790e-06 -2.95995596e-06 -6.43184148e-06
      -1.54693976e-06 -5.70070597e-06 -4.50284006e-06 2.05161754e-07
      -1.78466485e-06 4.49218504e-07 5.85979706e-06 4.29608099e-06
      1.00544810e-06 6.28337011e-06 4.85312830e-06 -2.88537376e-06
      3.59199748e-06 4.01418401e-06 -5.63195726e-06 2.27445821e-06
      4.26840188e-06 3.82897451e-06 1.07213973e-05 1.13405995e-05
      8.65606694e-07 9.63433649e-06 1.15118246e-05 2.85680949e-06
      1.08232261e-05 1.33983558e-05 3.65934966e-06 1.13627320e-05
      1.17749405e-05 -6.13048996e-06 5.76882087e-07 2.31877198e-06
      -1.23666259e-05 -6.41064798e-06 -5.78171012e-06 -6.55881149e-06
      -2.89885406e-06 -3.64730272e-06 -2.00520935e-06 2.91137269e-07
      2.24296713e-07 -7.79992661e-06 -5.30716852e-06 -6.47837760e-06
      5.79297466e-06 8.66576556e-06 6.52128256e-06 5.67578923e-07
      1.74101945e-06 -9.12705275e-07 -3.07557093e-06 -3.07374376e-06
      -5.71496639e-06 -9.43365592e-07 -9.19238346e-07 -3.52136340e-06
      5.73010652e-07 -9.09146024e-07 -2.62214144e-06 2.07527160e-06
      -1.41649230e-06 -4.87949728e-06 6.30274769e-07 -4.48474475e-06
      -8.89983494e-06 1.30781236e-05 9.26815483e-06 5.18862726e-06
      1.15540151e-05 6.71604084e-06 3.53182099e-06 4.12454392e-06
      4.73820450e-07 -3.07725077e-06 6.08693244e-06 1.90221385e-06
      -7.55159704e-07 1.34326383e-05 9.69325993e-06 5.70476095e-06
      -1.94396898e-06 -3.07365917e-06 -3.59029286e-06 -9.64229548e-06
      -1.20689137e-05 -1.21710718e-05 -7.94132575e-06 -1.11597028e-05
      -1.06787938e-05 -5.07183927e-07 -2.88885553e-06 -1.61340768e-06
      -6.01868078e-06 -5.90159016e-06 -1.01973308e-06 -1.21517996e-05
      -1.19794349e-05 -7.44638101e-06 -7.17693320e-06 -7.55577821e-06
      -3.54192139e-06 -1.25598681e-05 -1.32127861e-05 -9.68387485e-06
      -6.63383298e-06 -6.10174448e-06 -3.07610185e-06 -5.10612381e-06
      -4.88618389e-06 -2.95208270e-06 -5.17982335e-06 -5.33202547e-06
      -4.00114504e-06 -6.70495592e-06 -5.56468831e-06 -3.99472310e-06
      -1.78265338e-06 1.08215806e-06 3.18625439e-06 1.22435165e-06
      5.14605017e-06 7.12710289e-06 6.92685489e-06 1.05706622e-05
      1.00100942e-05 1.24144628e-06 5.79472635e-06 7.72492240e-06
      -1.25267352e-05 -8.09899393e-06 -5.43770057e-06 -1.16636165e-05
      -4.99813996e-06 -2.48939546e-06 9.88790543e-06 1.49402504e-05
      1.19693150e-05 7.73261945e-06 1.47096562e-05 1.11711288e-05
      4.14990564e-06 1.07364913e-05 6.47260913e-06 1.56348426e-06
      7.03297928e-06 3.15489092e-06 7.82562074e-06 1.34696284e-05
      7.84053464e-06 -2.34933032e-06 3.13770352e-06 -5.73600937e-06
      4.02727528e-06 8.61165609e-06 -1.42684382e-06 4.03817376e-06
      8.04233332e-06 -7.92202570e-07 -2.45303204e-06 2.41208772e-06
      -6.31259900e-06 -2.36907408e-06 1.92387779e-06 -8.15210751e-06
      -3.43003239e-06 5.36326070e-07 -1.08893037e-05 -1.61071455e-06
      2.55424584e-06 -6.90573779e-06 -6.68842222e-06 -2.99026533e-06
      -1.34034963e-05 -1.65840065e-05 -1.25753268e-05 -2.09652899e-05
      -1.15140688e-06 2.32095340e-06 -6.16675152e-06 -7.11042230e-06
      -2.15020896e-06 -1.07139658e-05 -9.03140335e-06 -4.17706906e-06
      -1.30843609e-05 -9.83037808e-06 -6.56037810e-06 -1.66746631e-05
      -1.09362998e-06 2.04733783e-06 -8.17562159e-06 -6.05708692e-08
      2.59297008e-06 -4.76998730e-06 -1.25322476e-05 -7.34218611e-06
      -1.40664097e-05 -1.24363514e-05 -5.48698063e-06 -1.14923851e-05
      -5.75594595e-06 5.34382536e-07 -3.73942476e-06 2.80627319e-06
      9.11263123e-06 2.96061762e-06 5.38466884e-06 1.18289117e-05
      7.54090479e-06 7.25254540e-06 1.32806581e-05 1.10106112e-05
      9.00825489e-06 1.59172560e-05 1.39540934e-05 8.14163468e-06
      1.63388577e-05 1.71295596e-05 1.51677909e-06 8.16017655e-06
      8.32147907e-06 -3.03905404e-06 3.19313699e-06 3.82964527e-06
      1.73886292e-06 8.63147488e-06 8.33086506e-06 -2.48118408e-06
      2.10619942e-06 1.25182044e-06 -1.48607096e-05 -9.25841232e-06
      -9.59088902e-06 -5.39244638e-06 5.41154122e-07 5.13160728e-07
      -6.84944212e-07 4.64843652e-06 4.98718691e-06 -3.78277673e-06
      8.26268604e-07 -1.06371863e-06 -9.73817623e-06 -6.01709098e-06
      -6.73735849e-06 -5.46346610e-06 -2.71958902e-06 -3.91067215e-06
      -6.93642960e-06 -6.51608798e-06 -7.62818718e-06 -9.76388674e-06
      -1.01753822e-05 -1.18857979e-05 -4.39342739e-06 -6.00230396e-06
      -8.58047679e-06 -1.60365619e-06 -3.93703067e-06 -6.44167358e-06
      2.76481978e-06 2.72393432e-08 -2.94724691e-06 1.58290743e-06
      -1.65748770e-06 -4.78553238e-06 -7.11412497e-07 -2.90003550e-06
      -4.57989290e-06 6.65664083e-06 5.95384608e-06 5.12122870e-06
      2.26276393e-06 -1.87074079e-07 -4.62934850e-06 -6.58515091e-06
      -7.70247061e-06 -6.80849962e-06 -4.77856656e-06 -6.08828304e-06
      -6.32059300e-06 3.74408984e-07 -1.53944313e-06 -2.55192049e-06
      -2.76296674e-07 -6.57380497e-07 -7.21847115e-08 6.64276314e-08
      -3.51403031e-07 3.02834678e-06 -1.57977297e-06 -2.79880510e-06
      -1.38983864e-06 -2.75722482e-06 -3.15347984e-06 -1.35088555e-06
      -4.63125025e-06 -3.96619862e-06 -4.82493419e-07 -7.95741562e-06
      -7.76978595e-06 -3.44254113e-06 -5.76396224e-06 -5.44635805e-06
      -2.94948268e-06 -1.04278879e-05 -9.69537268e-06 -6.74155672e-06
      -4.28241674e-06 -7.74702642e-07 2.29177385e-06 3.30301827e-06
      6.94736946e-06 1.00906427e-05 6.63978244e-06 1.30811377e-05
      1.48285226e-05 3.98895736e-06 9.98175528e-06 1.15232933e-05
      -6.08608661e-06 -8.92184687e-07 2.14791726e-06 1.21141716e-06
      7.60114062e-06 6.52447352e-06 -2.94343931e-06 1.68001543e-06
      -6.03870922e-06 -1.11623694e-06 4.25566941e-06 -1.49663902e-06
      1.06769050e-06 5.79114021e-06 -2.35996481e-06 2.04587627e-06
      6.76173613e-06 -1.16110130e-06 -1.22301094e-06 4.69147835e-06
      -3.73422199e-06 8.38270523e-07 6.67151244e-06 -2.89020409e-06
      1.22449055e-05 1.97103327e-05 9.02185002e-06 4.88711703e-06
      9.66454081e-06 -1.12949067e-06 8.20237619e-06 1.41576793e-05
      2.69706902e-06 1.29412374e-05 1.69941359e-05 3.25249471e-06
      2.89971172e-06 6.98849590e-06 -6.52854123e-06 -4.16990497e-06
      -3.39721339e-07 -1.12503549e-05 6.04146953e-06 1.03363282e-05
      -9.55631094e-07 8.11381881e-07 5.38428185e-06 -4.08331562e-06
      -1.29566149e-06 1.54586007e-06 -1.04479714e-05 2.12815030e-06
      6.17169644e-06 -1.08621707e-05 6.84563884e-06 1.11319741e-05
      -3.94071094e-06 2.38179109e-06 5.90939544e-06 -7.58173928e-06
      -3.65774440e-07 4.13479393e-06 -9.27978363e-06 5.92458900e-06
      1.00131692e-05 -9.31578768e-07 1.97453255e-06 7.54439452e-06
      2.11403403e-06 -6.14383850e-07 6.65855532e-06 -2.44860985e-07
      3.07817277e-06 1.04574819e-05 2.54092060e-06 -1.02136210e-05
      -2.45454066e-06 -9.36945798e-06 -1.00247453e-05 -1.88993647e-06
      -8.59192824e-06 -1.41345281e-05 -5.77866695e-06 -1.30894450e-05
      -4.11278825e-06 2.29435750e-06 -3.12254338e-06 1.36370700e-05
      2.04107182e-05 1.65497058e-05 7.76934939e-07 7.07695654e-06
      4.28362409e-06 -2.81407029e-06 3.32816967e-06 2.18654372e-06
      1.98873931e-06 7.24368738e-06 7.02435864e-06 -1.49825712e-06
      3.61011939e-06 3.29537102e-06 -7.92940955e-06 -8.53905306e-07
      5.35480353e-07 -2.14416741e-06 5.10291329e-06 4.95185168e-06
      2.53640314e-06 9.59447243e-06 8.98700000e-06 -5.14070007e-06
      1.95266375e-06 1.62615311e-06 -6.81502888e-06 -2.29616535e-06
      -3.10883274e-06 -7.55090741e-06 -3.25034443e-06 -5.17620947e-06
      8.65033627e-08 2.73631053e-06 2.91969911e-07 -4.10057146e-06
      -4.10782741e-06 -7.63608386e-06 -5.76387993e-06 -7.24475376e-06
      -1.17023210e-05 -4.46059539e-06 -6.43250451e-06 -9.36259130e-06
      -1.20933191e-05 -1.40437096e-05 -1.67023063e-05 -1.21188205e-05
      -1.40629900e-05 -1.61384560e-05 -1.21446692e-05 -1.27440862e-05
      -1.27298608e-05 -7.19786294e-06 -8.44957231e-06 -8.60675482e-06
      7.97236169e-07 -6.18527338e-07 -5.36972084e-06 -2.25724671e-05
      -2.15489617e-05 -2.14628544e-05 -2.02973661e-05 -1.93216965e-05
      -1.86663729e-05 -1.30386097e-05 -1.27765115e-05 -1.33268950e-05
      -5.28195915e-06 -4.58969998e-06 -5.03755746e-06 3.45316744e-06
      3.91770891e-06 3.93446817e-06 6.12982774e-07 1.71353622e-06
      1.93650999e-06 2.01929242e-06 2.33751098e-06 2.24021528e-06
      -5.06576544e-06 -4.67744621e-06 -1.50479900e-06 -5.51419089e-06
      -4.86282670e-06 3.91834725e-08 -6.80227049e-06 -6.70838290e-06
      -3.21894117e-06 -9.20087950e-06 -7.90331796e-06 -4.56123280e-06
      5.59204364e-06 9.19305603e-06 1.23164618e-05 4.37753260e-06
      1.12664675e-05 1.47238679e-05 8.57285795e-06 1.50100059e-05
      1.59788124e-05 8.80959306e-06 1.40643660e-05 9.88370539e-06
      1.08372797e-05 1.91461022e-05 1.76036665e-05 3.79712787e-06
      1.16384372e-05 1.07595279e-05 6.92655112e-06 1.43898978e-05
      8.13298357e-06 -2.11361041e-07 8.66670143e-06 1.63150332e-06
      1.05461750e-05 1.97665868e-05 1.24162270e-05 -3.56225019e-06
      5.03239244e-06 -4.35094398e-06 9.05083471e-06 1.83464854e-05
      6.52886820e-06 1.30177968e-05 1.97080699e-05 7.17484136e-06
      1.16782876e-05 1.73990502e-05 3.31366573e-06 1.64019384e-05
      2.11623101e-05 7.88550551e-06 1.17679820e-05 1.62157012e-05
      2.91949073e-06 4.02264186e-06 7.74345790e-06 -1.00338320e-05
      8.56979750e-06 1.18324360e-05 -5.88521198e-06 1.88691763e-06
      3.20448726e-06 -1.26762225e-05 7.56811369e-06 9.43347732e-06
      -6.11909718e-06 1.28030315e-05 1.63306795e-05 2.96504868e-06
      -2.91854008e-06 1.93108434e-07 -1.29056225e-05 -1.93912001e-06
      1.44036323e-06 -1.53457186e-05 3.81972359e-06 7.59088653e-06
      -8.99024599e-06 -1.71133661e-06 7.85427801e-07 -1.62944652e-05
      -4.48616811e-06 -4.97449093e-07 -1.50086216e-05 -3.25705810e-06
      1.61693856e-06 -1.14095092e-05 -2.06330341e-07 6.37242101e-06
      -3.29822774e-06 7.19660784e-06 1.30493427e-05 4.25793860e-06
      9.41430062e-06 1.56183523e-05 4.52062159e-06 -4.08564256e-06
      2.67392716e-06 -8.22549191e-06 -2.66025313e-06 2.82748692e-06
      -9.83156406e-06 -1.93459914e-06 3.61630032e-06 -5.63582716e-06
      -1.16945812e-05 -4.53783105e-06 -1.38207097e-05 9.72432190e-07
      8.69771884e-06 1.61507546e-06 -6.24330551e-06 9.09267683e-08
      -6.03085391e-06 -8.27116219e-06 -3.34151514e-06 -7.19111358e-06
      -6.32410320e-07 3.82869985e-06 4.74494641e-07 2.08644155e-06
      7.25511427e-06 6.86871226e-06 -1.20358427e-05 -5.90443733e-06
      -4.21957657e-06 -5.08070298e-06 5.40109511e-07 1.99019382e-06
      2.35594734e-06 8.38972755e-06 7.20067146e-06 -4.58482009e-06
      1.59843978e-06 1.29961279e-06 -6.81193842e-06 -2.62324761e-06
      -3.18366483e-06 -1.41525561e-05 -8.62995239e-06 -9.48156776e-06
      -4.91848596e-06 -1.97553823e-06 -3.88030003e-06 -6.75112369e-06
      -7.38082781e-06 -9.90465651e-06 -7.50857953e-06 -8.14848590e-06
      -1.05678710e-05 -4.65225821e-06 -4.99403041e-06 -6.04382467e-06
      -1.10031842e-05 -1.07233027e-05 -1.09270986e-05 -1.67964117e-05
      -1.80628958e-05 -1.93488559e-05 -1.85190820e-05 -1.97683330e-05
      -2.14787215e-05 -4.18467425e-06 -5.06158995e-06 -5.84935287e-06
      -5.33830371e-06 -5.30570924e-06 -7.15972965e-06 -5.64516813e-06
      -4.26916449e-06 -4.61769150e-06 -8.75848855e-06 -7.00230294e-06
      -6.51950677e-06 -1.13019405e-05 -1.01920132e-05 -1.08572813e-05
      -7.62871650e-06 -6.42762870e-06 -5.45467310e-06 -3.53752012e-06
      -2.02596743e-06 -7.92592232e-07 -9.05838249e-07 1.40110430e-07
      9.76536512e-07 -6.38993527e-07 3.10384678e-08 2.10009239e-06
      -5.37660753e-06 -2.68594613e-06 2.59647391e-06 4.01152647e-07
      2.08610027e-06 7.65110781e-06 1.89680020e-06 3.42062458e-06
      8.22329275e-06 -1.85395561e-06 3.81679683e-06 7.43809778e-06
      1.02629419e-05 1.71092706e-05 2.00832346e-05 4.24107020e-06
      1.02035738e-05 1.15004768e-05 2.23584152e-06 7.52594133e-06
      9.32818057e-06 6.56191878e-06 1.15096809e-05 1.12594116e-05
      -8.34342973e-06 -1.08041903e-07 -3.22809205e-06 -6.86384192e-06
      -6.34731634e-07 -5.51095718e-06 -9.86577561e-07 5.79675680e-06
      -2.97604629e-06 -1.01588887e-06 5.47583295e-06 -5.89855836e-06
      -1.33501253e-05 -7.20905746e-06 -1.66089358e-05 -5.72235649e-06
      -1.82918541e-07 -1.09719967e-05 1.57207933e-06 7.85620978e-06
      -5.92300557e-06 5.22491291e-06 1.18317621e-05 -2.17154457e-06
      1.75586392e-05 2.64504724e-05 1.36197805e-05 1.56093768e-06
      1.03068587e-05 -4.62183834e-06 1.01700598e-05 1.74183388e-05
      1.20126549e-06 6.08900291e-06 1.02586573e-05 -7.63164917e-06
      3.53637097e-06 5.87448812e-06 -1.12932303e-05 2.17593447e-06
      4.62214484e-06 -1.36595490e-05 5.29708404e-06 7.02237958e-06
      -8.74035322e-06 5.46848469e-06 8.54045084e-06 -3.52228835e-06
      9.64038463e-06 1.26931618e-05 1.84765315e-06 2.87647958e-06
      7.00907867e-06 -5.98423003e-06 6.45632099e-06 1.31132429e-05
      4.38545129e-07 8.18663284e-06 1.41424644e-05 3.45127796e-06
      7.69453072e-06 1.20174545e-05 -2.44678995e-06 4.71437670e-06
      9.43585837e-06 -5.68672613e-06 -1.08028444e-05 -5.77994797e-06
      -1.78527716e-05 -1.27242010e-05 -7.38847393e-06 -1.79081107e-05
      -7.34855348e-06 -1.36221558e-06 -1.26582718e-05 -2.06653499e-06
      5.02099056e-06 -5.41502277e-06 -2.14748002e-06 3.58976990e-06
      -1.12889975e-05 -5.17081071e-06 -1.00765419e-07 -1.44623937e-05
      -8.35939500e-06 -2.98236637e-06 -1.70339408e-05 8.57923442e-06
      1.34635766e-05 7.79326967e-07 3.30449870e-06 9.57174689e-06
      4.04518318e-07 -5.47046284e-06 2.97462748e-07 -9.07304275e-06
      2.03393552e-06 6.88338241e-06 -5.15960551e-07 -4.07745938e-06
      1.44914884e-06 -6.16571754e-07 -1.27363119e-05 -7.50724621e-06
      -6.43654312e-06 9.43592738e-07 6.05489276e-06 7.42124075e-06
      -3.84102168e-06 1.09530322e-06 7.37725031e-07 4.72523965e-07
      3.81616337e-06 5.12583028e-06 -4.44012448e-06 -4.79302662e-06
      -6.11289488e-06 -1.03918701e-05 -1.15689245e-05 -1.43039333e-05
      -7.03900832e-06 -9.72113685e-06 -1.42397239e-05 -2.18511286e-05
      -2.33297596e-05 -2.56985750e-05 -2.10158541e-05 -2.26154170e-05
      -2.54328133e-05 -1.71126867e-05 -1.85225890e-05 -2.02543506e-05
      -1.32792456e-05 -1.33687254e-05 -1.41488581e-05 -7.20481512e-06
      -9.05352044e-06 -1.02053355e-05 -1.56957831e-05 -1.82803833e-05
      -1.96129895e-05 -5.19312243e-06 -6.96495090e-06 -7.93514664e-06
      5.52368419e-06 7.06895707e-06 6.17229716e-06 -1.35947021e-05
      -1.17363306e-05 -1.13867472e-05 -9.19838112e-06 -6.95846938e-06
      -6.62580487e-06 -2.50622952e-06 -1.65684105e-06 -1.79079871e-06
      -5.64825132e-06 -4.05145056e-06 -3.26806799e-06 -3.54096551e-06
      -2.15355453e-06 -7.32654996e-07 -3.55303627e-07 1.18557864e-07
      1.10267376e-06 1.41021144e-06 1.74546642e-06 3.41137525e-06
      -2.08155598e-06 -1.04501544e-06 4.65607144e-07 -1.83280190e-06
      1.53427015e-06 7.22706500e-06 -6.84805855e-06 -3.54178474e-06
      -5.32785407e-07 -8.46452713e-06 -5.21791526e-06 -3.80380902e-06
      8.99151746e-06 1.40186794e-05 1.39957656e-05 5.63685671e-06
      1.04151595e-05 8.97434074e-06 1.01683590e-05 1.44310379e-05
      1.19342048e-05 -2.45925685e-06 2.19747017e-06 -6.36481400e-06
      -8.74476518e-06 -2.21533287e-06 -8.12837789e-06 -7.91208458e-06
      -1.98050202e-06 -9.60546549e-06 -1.25750887e-06 5.82100392e-06
      -6.25431403e-06 -3.95452480e-06 2.06169670e-06 -1.06644784e-05
      -1.73600456e-05 -1.27128033e-05 -2.61736714e-05 -2.66466009e-06
      2.97461020e-06 -1.37087163e-05 -2.52762425e-06 4.50898142e-06
      -1.20492878e-05 -4.26031784e-06 2.56932663e-06 -4.54852852e-06
      6.37495486e-06 1.38482783e-05 6.93298762e-06 1.02883632e-05
      1.88570230e-05 4.68149028e-06 1.54527481e-06 9.44721160e-06
      -4.29825832e-06 6.57069359e-06 1.25674997e-05 -4.21541745e-06
      8.77103957e-06 1.47611545e-05 2.44726607e-07 5.37153073e-06
      1.08407412e-05 -2.58332034e-06 1.21799940e-05 8.12524922e-06
      1.92803645e-06 6.85713985e-06 1.38670694e-05 2.95864993e-06
      7.83437918e-06 1.39479980e-05 7.93887182e-07 3.92715538e-06
      1.00413863e-05 -2.38129246e-06 2.82839528e-06 9.26971825e-06
      -1.50661822e-06 5.08495350e-06 1.12099615e-05 -2.57739157e-06
      1.30931369e-06 5.81644235e-06 -9.57238990e-06 6.64467188e-06
      9.36260312e-06 -4.51902270e-06 9.33190950e-06 1.27475087e-05
      -1.30272781e-06 1.03736977e-06 6.60581190e-06 -7.97257326e-06
      9.44197211e-07 7.51304424e-06 -8.06516073e-06 -2.12575947e-06
      5.14789690e-06 -1.00136804e-05 6.05610239e-07 7.42866041e-06
      -8.70881649e-06 2.61905279e-06 7.05259617e-06 -8.50833658e-06
      1.50573405e-05 2.01265830e-05 4.51649794e-06 1.82630538e-05
      2.24280211e-05 9.38511857e-06 1.28185457e-05 1.69621671e-05
      3.19515539e-06 -2.52762561e-06 9.52784774e-07 -1.34484308e-05
      -7.03356181e-06 -2.66665370e-06 -1.11433037e-05 -3.62930541e-06
      8.09461795e-08 -7.02197758e-06 -2.21257756e-06 1.99836018e-06
      -3.10602013e-06 -8.83030771e-06 -4.52241602e-06 -6.91433888e-06
      1.34427194e-06 4.12083591e-06 5.39152688e-06 -2.65782660e-07
      1.44439105e-06 2.13626819e-07 -7.69746384e-06 -8.17059754e-06
      -1.06961497e-05 -1.73348271e-05 -1.62188553e-05 -1.71561733e-05
      -1.15170988e-05 -1.28833972e-05 -1.73027565e-05 -1.70311414e-05
      -2.02730971e-05 -2.42084643e-05 -2.17768866e-05 -2.43057220e-05
      -2.68634667e-05 -1.57395098e-05 -1.59081137e-05 -1.68102106e-05
      -9.81344965e-06 -9.55625001e-06 -9.78894968e-06 -2.81097869e-06
      -3.77933588e-06 -4.93808466e-06 -3.10049563e-06 -5.18849947e-06
      -6.81827305e-06 -1.51321046e-06 -3.10858127e-06 -3.57382032e-06
      -2.80186373e-06 -1.79290817e-06 -7.20830428e-07 -1.52411212e-05
      -1.36640519e-05 -1.17176833e-05 -1.21602361e-05 -9.10242215e-06
      -6.25767689e-06 -5.51987387e-06 -5.01231807e-06 -4.25460485e-06
      -8.90252704e-06 -8.07073229e-06 -7.52894084e-06 -2.55073360e-06
      -9.34465220e-07 7.11010330e-07 -2.43746649e-06 -2.68300892e-06
      -2.90704497e-06 8.60296950e-06 9.12865016e-06 7.91046750e-06
      4.31904982e-06 5.69064696e-06 5.35291247e-06 -1.54223855e-07
      1.82035410e-06 1.85994691e-06 -1.14692930e-05 -9.63988441e-06
      -1.01375344e-05 -3.33067578e-06 2.46020340e-06 3.82857252e-07
      9.35335083e-06 1.31135739e-05 7.41294343e-06 5.14153544e-06
      1.04094188e-05 2.43996510e-06 -1.04961998e-06 3.92132961e-06
      -5.97432654e-06 5.50654886e-06 1.09840275e-05 2.58682439e-06
      -6.12829081e-06 -8.16983174e-07 -9.88112151e-06 7.14612406e-06
      1.29266327e-05 6.42410157e-07 -9.93939648e-06 -4.18293848e-06
      -1.56603401e-05 -1.00678144e-05 -3.83373208e-06 -1.60183881e-05
      6.61358627e-07 7.00013925e-06 -7.75095850e-06 -1.08122990e-07
      7.27426050e-06 -6.04125171e-06 -1.19278320e-06 5.74363139e-06
      -9.64347691e-06 -6.83569533e-06 5.68224209e-07 -1.17099553e-05
      -4.03693866e-06 4.40031454e-06 -7.21025435e-06 -4.57188844e-06
      5.30295756e-06 -6.23077267e-06 -6.86071587e-07 9.13598888e-06
      -3.15668308e-06 4.69578072e-06 1.23593618e-05 -1.23872474e-06
      5.16671435e-06 1.39184667e-05 1.19430433e-06 8.40442499e-06
      1.63438563e-05 4.80442213e-06 2.81808434e-06 1.02042322e-05
      -1.83477459e-06 2.09035443e-06 5.92434753e-06 -7.43777491e-06
      1.11153104e-05 1.53553920e-05 6.69005487e-07 -1.83786460e-06
      4.15730983e-06 -9.64002538e-06 -7.15861233e-06 -2.96247208e-06
      -1.83733682e-05 2.78740526e-06 7.54073790e-06 -5.48946082e-06
      1.81999058e-05 2.38169196e-05 7.76650722e-06 -2.18041782e-06
      2.51970141e-06 -1.45209606e-05 4.89968625e-06 1.05057179e-05
      -5.85741327e-06 -7.02882153e-06 -9.79401307e-07 -1.37439765e-05
      -1.74886202e-06 5.56854866e-06 -8.05696254e-06 -2.05005904e-06
      4.89104832e-06 -1.08323966e-05 -4.91154378e-06 1.05639128e-06
      -1.65431338e-05 -4.51753067e-07 5.13471423e-06 -1.16143210e-05
      -2.58485579e-06 2.49627487e-06 -1.40172097e-05 1.58934236e-05
      1.89763305e-05 9.40488690e-07 2.04640710e-05 2.35730404e-05
      6.96479401e-06 -2.27173859e-06 -8.38345782e-10 -1.49853358e-05
      1.18424225e-06 4.93030166e-06 -7.16750583e-06 -4.38895631e-06
      -1.94288327e-06 -1.41903247e-05 -1.06375401e-05 -8.47183219e-06
      -1.96086658e-05 -6.91200376e-06 -5.24478446e-06 -1.43179350e-05
      -1.02118547e-05 -8.86205180e-06 -1.31387160e-05 7.71606494e-07
      9.01049987e-07 -2.19677008e-06 -6.87980173e-06 -8.28715565e-06
      -1.24037151e-05 -8.55756662e-06 -9.90449189e-06 -1.37907537e-05
      -1.24907465e-05 -1.58338717e-05 -2.19384419e-05 -1.30933495e-05
      -1.53296733e-05 -2.16655772e-05 -1.18306098e-05 -1.43730276e-05
      -1.83901993e-05 -1.12299313e-05 -1.20182458e-05 -1.56589776e-05
      -6.88043292e-06 -7.28369150e-06 -8.62063825e-06 -2.03577974e-06
      -2.30569117e-06 -3.87918135e-06 -1.40120073e-05 -1.52689790e-05
      -1.61277185e-05 -6.76596937e-06 -7.69705184e-06 -6.87036618e-06
      -6.11748965e-06 -3.53499559e-06 -4.23390748e-06 -9.77223499e-06
      -7.87745557e-06 -7.02911439e-06 -9.08494167e-06 -6.43751355e-06
      -6.34397884e-06 -1.94344502e-05 -1.98734688e-05 -2.12491741e-05
      -1.69624655e-05 -1.66878199e-05 -1.57916311e-05 -1.20192681e-05
      -1.12341168e-05 -1.01771593e-05 3.28076595e-07 -9.37689151e-07
      -1.25167116e-06 4.17415004e-06 3.67085727e-06 1.90821879e-06
      -5.89170952e-07 -6.01044832e-08 -2.53218263e-06 4.78624031e-07
      9.19676438e-07 -2.29932152e-06 -2.52101955e-07 2.31886747e-06
      2.52032493e-07 -6.95631206e-06 -1.69335669e-06 -4.79974597e-06
      6.00497106e-06 1.00598081e-05 -7.46377168e-07 4.74828857e-06
      9.70541078e-06 -1.85790941e-06 1.00478073e-05 1.38309188e-05
      2.62001868e-06 -3.65414803e-06 -3.08125948e-07 -1.09872262e-05
      9.46097043e-06 1.45359909e-05 7.45223588e-06 4.07389143e-06
      9.04587614e-06 -1.68141003e-06 2.00427826e-06 9.33612773e-06
      -1.90271840e-06 1.03886282e-06 8.83263419e-06 -2.70060400e-06
      5.87526665e-06 1.37829411e-05 -1.42008219e-06 5.14968360e-06
      1.25547349e-05 -1.67359929e-06 -6.60350770e-06 1.79598459e-07
      -1.56944152e-05 -8.75160185e-06 -2.54093720e-06 -1.53096516e-05
      -2.25687941e-07 7.43940154e-06 -2.84293856e-06 -1.91893673e-06
      6.54663245e-06 -4.72970351e-06 -1.44698538e-06 7.46139904e-06
      -1.99362830e-06 1.40289239e-06 9.46352429e-06 -1.60587024e-06
      -1.42995486e-06 3.55190082e-06 -8.77182083e-06 2.03460536e-06
      7.66156700e-06 -2.88856972e-06 -5.36423477e-06 -1.70747080e-06
      -1.34725851e-05 5.02955663e-06 1.05334038e-05 -6.54023040e-07
      9.85713086e-06 1.49362604e-05 3.58588295e-06 4.37965855e-06
      8.92431581e-06 -4.63673223e-06 -2.46393620e-06 3.26363806e-06
      -1.06929128e-05 6.82792006e-07 6.10507232e-06 -6.80981657e-06
      8.11393056e-06 1.30533908e-05 -4.37958448e-07 5.78457866e-06
      1.07570995e-05 -5.74411297e-06 4.66986739e-06 1.12663829e-05
      -5.53244536e-06 3.86857846e-06 1.00258940e-05 -6.60568412e-06
      1.43225662e-07 8.00805810e-06 -8.04073079e-06 2.51856318e-06
      1.01983023e-05 -6.56716429e-06 -6.73425939e-06 -5.25754558e-07
      -1.38603509e-05 2.09480660e-07 5.96688506e-06 -1.02027807e-05
      -1.40838392e-06 3.68654833e-06 -1.12142452e-05 1.22242736e-05
      1.70652074e-05 9.80494406e-08 3.56137662e-06 6.56010661e-06
      -1.04897399e-05 6.36996810e-06 8.77526327e-06 -7.33873048e-06
      8.83742086e-06 1.30331828e-05 -9.42096904e-07 -1.31078959e-05
      -1.04183810e-05 -2.17062407e-05 -1.08914801e-05 -7.64774904e-06
      -1.52434577e-05 -5.00635497e-06 -1.90432240e-06 -1.30255894e-05
      -4.28336716e-06 -1.87969056e-06 -1.07929854e-05 2.79053143e-06
      4.17681895e-06 -7.93283675e-07 -2.96005032e-06 -4.28514295e-06
      -8.43028738e-06 -1.98448515e-06 -4.46331251e-06 -1.01259966e-05
      -9.20928051e-06 -1.21358380e-05 -1.91592371e-05 -4.28108433e-06
      -5.46921547e-06 -1.06451471e-05 -6.35299375e-06 -6.04074148e-06
      -8.05759373e-06 -5.35033678e-06 -3.98410793e-06 -4.76878358e-06
      -4.57158194e-06 -3.19922901e-06 -3.33968660e-06 -9.02024749e-06
      -8.89898547e-06 -1.01583237e-05 -1.16240517e-05 -1.14925451e-05
      -1.02360082e-05 -3.51386348e-07 -9.38481264e-07 1.63417496e-06
      -8.62080105e-06 -7.22379627e-06 -7.91129423e-06 -1.47224146e-05
      -1.38731730e-05 -1.40150514e-05 -1.21458343e-05 -1.14187933e-05
      -1.29380396e-05 -6.36119194e-06 -5.14975000e-06 -4.90514140e-06
      -6.31705825e-06 -6.58655290e-06 -7.14027419e-06 -5.40340852e-06
      -7.02965644e-06 -8.67087510e-06 3.76262869e-06 4.29929878e-06
      4.97488463e-06 9.61076421e-06 1.07721953e-05 8.52277935e-06
      2.21847500e-07 1.24036558e-06 -4.03711692e-06 -1.32761738e-06
      5.19275545e-07 -1.96841688e-06 -7.67156325e-06 -2.00051568e-06
      -5.48551725e-06 -3.04918876e-06 4.43071758e-06 1.20512865e-07
      1.14580394e-06 8.07282231e-06 -8.68123550e-07 4.76593823e-06
      9.67107007e-06 -2.36212895e-06 1.17974287e-05 1.72835589e-05
      7.92661194e-06 1.83991924e-05 2.43228151e-05 1.18246917e-05
      -7.89152273e-06 -6.41207805e-07 -9.97888674e-06 -1.37332415e-06
      4.85700093e-06 -7.54639177e-06 -3.24942903e-06 4.72628290e-06
      -7.32937997e-06 2.75723801e-06 9.87629301e-06 -3.71487886e-06
      8.40232588e-06 1.52370931e-05 1.12346186e-06 -1.74808588e-06
      5.11106737e-06 -7.76820070e-06 -1.82966642e-06 5.40919336e-06
      -7.63828029e-06 -1.12702974e-05 -4.58120576e-06 -1.60225754e-05
      -7.51877542e-06 -4.93310324e-07 -1.41201599e-05 -4.93231391e-06
      2.69956672e-06 -1.42091258e-05 2.32671505e-06 8.70425538e-06
      -6.55388567e-06 -2.49894470e-06 2.71128170e-06 -1.05427152e-05
      -1.15381363e-05 -5.54517010e-06 -2.16297376e-05 -6.18261356e-06
      1.35570713e-06 -1.29521213e-05 7.93553525e-08 5.51255607e-06
      -9.68589029e-06 1.12607240e-05 1.84743567e-05 6.67810764e-06
      3.48913568e-06 1.00238713e-05 -2.36056167e-06 4.44504576e-06
      1.09696848e-05 -1.60402180e-06 -4.42836881e-06 8.16841123e-07
      -1.18608223e-05 8.86126873e-06 1.43826137e-05 -1.53343080e-06
      5.81595214e-06 1.14371996e-05 -4.99487942e-06 -7.05729690e-07
      4.79251867e-06 -1.10787169e-05 1.12441785e-06 8.32780279e-06
      -5.76283765e-06 -2.77803065e-06 5.52862502e-06 -7.54896973e-06
      -2.18229638e-06 5.27378052e-06 -1.07833357e-05 -2.02380579e-06
      6.66070946e-06 -7.80863047e-06 -5.47129093e-06 3.29825980e-06
      -1.02345348e-05 -6.19875209e-06 5.45551984e-07 -1.58754629e-05
      -5.52067513e-06 9.35840887e-07 -1.28283482e-05 5.77051878e-06
      9.95426944e-06 -6.08331538e-06 1.13814303e-05 1.45428839e-05
      -1.56476369e-06 1.09880045e-06 3.01203431e-06 -9.64717856e-06
      -1.10248493e-06 2.20339507e-06 -1.23814034e-05 -8.03278544e-06
      -3.05669664e-06 -1.49492907e-05 -2.17100060e-05 -1.71416723e-05
      -2.83394111e-05 -1.28806296e-05 -9.73423539e-06 -1.66563332e-05
      -1.35916616e-05 -1.18258822e-05 -1.75296918e-05 -2.44090006e-06
      -2.28430122e-06 -1.17648833e-05 -8.97307928e-06 -1.00258712e-05
      -1.39183621e-05 4.80043468e-07 -5.10896314e-07 -4.24539439e-06
      -4.86833324e-06 -6.89657736e-06 -1.22006459e-05 -9.11287952e-06
      -9.81688845e-06 -1.20733912e-05 1.12016187e-06 1.94922791e-06
      1.86572117e-06 -1.10506630e-06 -1.15745024e-06 -3.53149744e-07
      -7.80084611e-06 -6.73355817e-06 -5.76266211e-06 2.97271612e-07
      2.64155460e-07 8.69522296e-07 7.38112305e-07 -2.80582583e-07
      -2.82242269e-07 -6.25227585e-06 -6.15780436e-06 -3.09445954e-06
      -2.07639960e-06 5.41501549e-07 -7.82137661e-08 -7.58729357e-06
      -7.15016404e-06 -6.95256404e-06 -1.07174910e-05 -1.16204892e-05
      -1.34587090e-05 -8.24882136e-06 -8.83511620e-06 -1.22151059e-05
      -2.68998974e-06 -3.05248568e-06 -4.12866757e-06 7.73698684e-06
      5.55423549e-06 3.48050162e-06 5.17854414e-06 2.78130688e-06
      -2.17568910e-07 5.17440139e-06 5.24769530e-06 -2.50462995e-06
      -4.94627375e-06 -1.87478656e-06 -4.12329882e-06 -1.44613578e-05
      -1.02491294e-05 -1.41448936e-05 -3.84178065e-06 1.72912428e-06
      -3.78490381e-06 -4.79748735e-07 6.08913797e-06 -2.02074261e-06
      -2.49289906e-06 2.18136961e-06 -4.73786395e-06 1.16720212e-05
      1.60777563e-05 4.33122250e-06 -2.48277365e-06 3.29190448e-06
      -8.48813488e-06 6.52154085e-06 1.24744911e-05 -1.04587673e-06
      -4.46059175e-06 2.85606006e-06 -8.29405872e-06 2.16944591e-06
      9.92606238e-06 -2.92768618e-06 1.94328300e-06 9.81976063e-06
      -4.55041436e-06 5.79700736e-06 1.26229916e-05 -2.91337710e-06
      3.84008717e-06 1.09326238e-05 -4.42572446e-06 3.25848168e-06
      8.90252250e-06 -1.01362757e-05 2.95524410e-06 7.29804515e-06
      -1.06663219e-05 -5.49675042e-06 -1.49121797e-06 -1.14984487e-05
      -1.12808393e-05 -5.67720508e-06 -1.75264904e-05 -1.59295860e-06
      4.86397812e-06 -9.18144269e-06 4.04253069e-06 1.14926570e-05
      -3.35269306e-06 2.32758043e-06 8.81986398e-06 -6.46238732e-06
      -2.03583750e-06 4.37725794e-06 -6.81023494e-06 5.97461940e-06
      1.26523882e-05 -1.68108579e-06 1.31692768e-05 2.01198109e-05
      3.75078093e-06 8.03550301e-06 1.57047143e-05 -1.51253055e-08
      1.21358244e-05 1.95057946e-05 5.93443019e-06 8.15164549e-06
      1.57603008e-05 3.07473073e-07 -2.57647912e-06 3.69292252e-06
      -1.17850113e-05 1.27970611e-06 7.50046866e-06 -7.89580463e-06
      2.13875546e-06 8.47773208e-06 -6.27079908e-06 1.37676966e-06
      7.58346641e-06 -6.82802511e-06 -1.10007556e-06 7.26094868e-06
      -8.69602263e-06 -5.12052839e-06 5.40685596e-06 -8.85035934e-06
      -5.69461827e-06 3.30196167e-06 -1.17546788e-05 -1.40508846e-05
      -3.29561976e-06 -1.47981345e-05 -6.95486005e-06 3.55778297e-06
      -7.45175839e-06 -7.97617395e-06 1.07293420e-06 -1.16961737e-05
      -1.53405690e-05 -5.49038077e-06 -1.61100397e-05 1.92222160e-07
      8.40661778e-06 -1.79127551e-06 7.78888534e-06 1.40317961e-05
      5.37648646e-07 -7.96097902e-06 -3.02448939e-06 -1.23463506e-05
      -5.86488522e-06 -2.27292139e-06 -8.33008835e-06 -1.17919535e-05
      -6.29469241e-06 -1.58627572e-05 -7.43955206e-06 -3.03487377e-06
      -1.55836824e-05 -9.21159881e-06 -5.01981413e-06 -1.60909603e-05
      -1.01885817e-05 -7.10718041e-06 -1.70512885e-05 -3.05684080e-06
      -1.83041709e-06 -1.15576368e-05 -1.16419437e-06 -2.67369023e-06
      -1.14233817e-05 -6.74504747e-07 -2.56716658e-06 -5.58614965e-06
      6.99054624e-07 -1.62982792e-06 -4.66678648e-06 2.39805490e-06
      2.22429776e-06 2.07686639e-06 1.99533883e-06 2.64154528e-06
      3.06708421e-06 -3.45893181e-06 -2.91769697e-06 -1.97851796e-06
      -8.66903520e-06 -7.21835750e-06 -6.46939679e-06 -9.15263990e-06
      -1.01614251e-05 -1.11076197e-05 -9.92324476e-06 -1.07552096e-05
      -9.86065152e-06 -8.89739658e-06 -1.03679486e-05 -8.68570623e-06
      -2.28825525e-06 -6.15323927e-07 -1.72617388e-06 -6.46862600e-06
      -5.91703338e-06 -7.83494579e-06 -7.66549056e-06 -8.12676990e-06
      -1.09528528e-05 2.83519557e-06 2.00390969e-06 -2.64441724e-06
      -3.97622762e-06 -3.65432538e-06 -6.45051659e-06 2.34025651e-06
      3.04922878e-06 2.23664230e-07 -1.21354185e-06 -2.83574286e-06
      -8.67181279e-06 -7.56374220e-06 -7.73919692e-06 -1.51255563e-05
      -6.16731631e-06 -3.61363391e-06 -9.79994275e-06 -5.74433398e-06
      -5.04281525e-06 -1.42243580e-05 1.34916672e-05 1.81038140e-05
      5.99257601e-06 4.18488798e-06 8.65630955e-06 -3.79615869e-07
      -3.35470190e-06 1.41182022e-06 -8.54035716e-06 6.16353327e-06
      1.21378189e-05 6.99347765e-07 4.84097973e-06 1.11034196e-05
      -2.41883913e-06 -5.62946479e-06 3.74895620e-07 -1.30709386e-05
      -8.91493801e-06 -2.48194374e-06 -1.51113709e-05 -1.03122684e-05
      -4.36779692e-06 -1.82252334e-05 -1.76121569e-06 2.95251834e-06
      -1.42397903e-05 3.51865810e-06 9.67569576e-06 -6.01194142e-06
      -6.65160815e-06 -5.22505502e-07 -1.82918084e-05 -9.50079993e-07
      4.81405368e-06 -1.24684611e-05 -5.27038355e-06 8.67765493e-07
      -1.51943905e-05 -9.64787068e-06 -4.80340123e-06 -2.14054089e-05
      1.51928850e-06 5.73386524e-06 -6.52378731e-06 -4.49671188e-06
      2.72370926e-07 -1.39905424e-05 -6.12858730e-06 9.01267299e-07
      -1.38428795e-05 -9.25369704e-07 5.26106351e-06 -1.02345202e-05
      -2.78461607e-06 1.98980274e-06 -1.61558546e-05 1.06069569e-06
      7.67415077e-06 -8.28377324e-06 1.33549729e-05 1.87494752e-05
      -1.31912998e-06 1.47705250e-05 2.09563223e-05 3.27378780e-06
      6.60853266e-06 1.44172263e-05 -2.59488530e-07 2.99367548e-06
      9.95986011e-06 -5.70844941e-06 6.28862426e-06 1.47761730e-05
      -6.37431356e-07 5.82504390e-06 1.24254357e-05 -6.24561699e-06
      1.44325631e-05 2.21548707e-05 4.78217544e-06 1.58459989e-05
      2.47504177e-05 9.88059401e-06 2.90651224e-06 1.48863410e-05
      3.76079174e-06 -5.33418688e-06 8.96353231e-06 1.00245677e-06
      -1.57352570e-05 -4.70959549e-06 -1.88603863e-05 -4.24258315e-06
      4.86841691e-06 -9.45024476e-06 -2.78029665e-06 7.74559885e-06
      -4.61664649e-06 8.99823044e-06 1.65993442e-05 9.07236085e-07
      -1.10706760e-05 -3.97557369e-06 -1.33567046e-05 -9.91385392e-08
      7.69348662e-06 -4.01214129e-06 8.09378719e-07 8.63979858e-06
      -2.20696165e-06 -5.41876898e-06 6.27600173e-07 -1.04328037e-05
      3.02287458e-06 8.94002005e-06 -2.59298849e-06 2.04792286e-06
      6.75664023e-06 -6.38779238e-06 -7.61399042e-06 -4.32375919e-06
      -1.92184871e-05 -2.74994500e-06 7.33845070e-07 -1.38483420e-05
      -8.57587224e-07 2.18667381e-07 -1.23691962e-05 2.57779652e-06
      3.21184734e-06 -9.71906229e-06 6.39760492e-06 5.40732299e-06
      -7.35796812e-06 1.17538648e-05 9.25090080e-06 3.66470573e-07
      2.15510363e-06 -2.71016972e-07 -4.59756166e-06 -5.42044427e-06
      -5.84718009e-06 -5.23644258e-06 1.83664179e-06 2.91521633e-06
      5.72244971e-06 -7.56506006e-06 -5.99801797e-06 -4.22258654e-06
      -7.00351575e-06 -5.49139895e-06 -3.68803262e-06 -4.86250656e-06
      -4.46816830e-06 -4.02300611e-06 -7.88989473e-06 -8.38085452e-06
      -7.74878481e-06 -6.74645707e-06 -7.06482979e-06 -5.12380120e-06
      -8.54176142e-06 -7.13413101e-06 -8.42437930e-06 -7.14402040e-06
      -8.57274790e-06 -1.06171938e-05 -8.14332725e-06 -6.61009744e-06
      -5.73826537e-06 -5.89567571e-06 -5.56997793e-06 -6.66158758e-06
      -5.86916713e-06 -4.46252579e-06 -4.06182517e-06 1.89127957e-06
      2.23221559e-06 2.87793767e-07 -1.02051736e-05 -9.27674046e-06
      -1.33933454e-05 -8.65661605e-06 -8.41565816e-06 -1.46026850e-05
      -1.37168381e-05 -1.22143847e-05 -2.08382062e-05 -1.28274019e-06
      3.81780524e-07 -1.15964085e-05 2.48490710e-06 7.23722906e-06
      -4.44562056e-06 2.20223183e-06 4.56621274e-06 -6.96629877e-06
      1.78158882e-06 4.92891559e-06 -8.45427076e-06 1.46838556e-06
      5.85246926e-06 -7.56662530e-06 3.93203754e-06 1.06975185e-05
      -3.55628799e-06 3.15397438e-06 1.01745291e-05 -6.19734737e-06
      -7.20498565e-06 -1.72742011e-06 -1.65915171e-05 -1.10308110e-05
      -5.03031288e-06 -1.97527388e-05 6.83652252e-06 1.27014910e-05
      -4.75104071e-06 -9.04601563e-07 4.61845457e-06 -1.20315499e-05
      -1.84376381e-06 4.58330578e-06 -1.25110164e-05 -4.24375457e-06
      2.21854657e-06 -1.51492804e-05 -8.52759331e-06 -1.28989245e-06
      -1.68852566e-05 -4.79029086e-06 2.73946330e-06 -1.06078714e-05
      -6.46602803e-06 9.02585384e-07 -1.24236931e-05 -3.56956798e-06
      2.30667638e-06 -1.09745788e-05 1.73142882e-06 9.23075731e-06
      -7.55457722e-06 -1.64495106e-07 6.34608523e-06 -9.46737146e-06
      -3.10669429e-06 3.33110052e-06 -1.46152925e-05 6.16643456e-06
      1.28393813e-05 -1.08193944e-06 1.45884178e-05 2.04989283e-05
      3.36261746e-06 4.03176182e-06 1.19375009e-05 -3.90077548e-06
      5.23724157e-06 1.32055402e-05 -5.28231476e-06 2.56504768e-06
      8.48400032e-06 -1.06322050e-05 5.12881661e-06 1.17787076e-05
      -7.47202876e-06 5.41960617e-06 1.66474874e-05 2.50777020e-07
      -6.44004467e-06 3.94094195e-06 -6.98212034e-06 2.40738086e-06
      1.42831850e-05 3.31051382e-07 6.56336351e-06 1.90090286e-05
      4.62550497e-06 -1.49733171e-06 1.22778310e-05 9.40828954e-07
      1.05292452e-06 1.34755910e-05 1.38960297e-06 5.03534284e-06
      1.30686103e-05 -5.23619929e-06 -1.56930710e-07 8.28814336e-06
      -8.06724893e-06 -7.88845739e-07 5.30261605e-06 -8.85280679e-06
      1.52259724e-06 7.32990702e-06 -9.40643167e-06 2.14269403e-05
      2.64548598e-05 9.53381004e-06 9.16369390e-06 1.57780651e-05
      4.02175192e-06 8.42465397e-06 1.35245527e-05 -1.01299520e-06
      -7.62954471e-07 5.67870347e-06 -6.75419278e-06 -9.74505724e-07
      4.13829639e-06 -8.80783500e-06 -5.13969053e-06 1.10433359e-06
      -1.19967826e-05 -3.07273172e-06 1.97811391e-06 -1.33330923e-05
      2.01478633e-06 2.78865264e-06 -1.17399550e-05 4.00179806e-06
      4.09353015e-06 -9.20339153e-06 7.04398417e-06 6.05231617e-06
      -7.08192829e-06 1.15990561e-05 7.59347859e-06 -5.08608673e-06
      1.12516027e-05 7.16733575e-06 -2.89900345e-06 -1.11037093e-06
      -3.21836410e-06 -6.59141415e-06 2.92717846e-06 6.04819320e-07
      2.22118857e-08 -7.54398627e-07 -3.10573114e-06 -4.64631057e-06
      -4.54832252e-06 -5.36719472e-06 -5.58993861e-06 5.18196748e-06
      3.84845362e-06 2.14918509e-06 1.67513895e-06 2.35118307e-07
      -6.74440514e-07 -2.41182261e-06 -3.62976539e-06 -3.63236859e-06
      -2.11524730e-06 1.00173634e-06 1.26873431e-06 -9.66055086e-06
      -6.61028525e-06 -5.71539658e-06 -5.73930902e-06 -2.04257003e-06
      -1.34752361e-06 3.10187329e-06 6.06187723e-06 6.00939893e-06
      -3.53042310e-06 4.08878492e-07 2.61787193e-07 1.88784134e-06
      6.08718119e-06 2.81967732e-06 -8.88058639e-06 -6.41191491e-06
      -1.03732564e-05 -1.65192523e-05 -1.55449488e-05 -2.31550766e-05
      -1.16442891e-06 4.01568570e-07 -1.33071744e-05 -3.26285090e-06
      -1.68744759e-06 -1.32618734e-05 5.42631551e-06 8.21549293e-06
      -4.40060421e-06 -8.78368155e-07 1.21691801e-06 -1.30873996e-05
      3.86988631e-06 8.20770219e-06 -4.52612176e-06 6.07010406e-06
      9.63718503e-06 -6.82360678e-06 3.98278598e-06 1.15367347e-05
      -1.84177304e-06 -3.85343583e-06 3.61923662e-06 -1.05011504e-05
      -1.11100535e-05 -5.26257872e-06 -1.75190271e-05 -2.75930802e-06
      4.58834165e-06 -9.61904425e-06 -6.06660706e-06 6.74053865e-07
      -1.53962628e-05 -8.68921870e-06 -1.22237293e-06 -1.65640140e-05
      -6.24260565e-06 9.31400677e-07 -1.73494882e-05 6.41494671e-06
      1.60269774e-05 -1.72454668e-06 -2.56570206e-06 6.20167248e-06
      -1.04134306e-05 -1.38825253e-05 -6.07109723e-06 -1.74123616e-05
      -7.29226440e-06 -4.10067059e-07 -6.79633740e-06 1.03077964e-05
      1.89432230e-05 1.38567748e-06 9.04156605e-06 1.59131778e-05
      -3.29257591e-06 5.90342916e-06 1.24383832e-05 -7.97917801e-06
      1.06496273e-05 1.84745313e-05 -1.49463926e-06 1.44515307e-05
      2.30419464e-05 3.76979960e-06 1.19695542e-05 2.05180659e-05
      -6.34231526e-07 9.99645363e-06 1.73092994e-05 -4.49491245e-06
      7.72229305e-06 1.52360935e-05 -3.66352106e-06 1.10430528e-05
      1.90706724e-05 -2.72064949e-06 -2.74581134e-06 5.67507914e-06
      -1.28634374e-05 -2.20301672e-07 1.03222919e-05 -4.81907182e-06
      3.60866397e-06 1.60703366e-05 9.32200351e-07 -4.82309224e-06
      5.75051808e-06 -7.86523378e-06 3.50612117e-06 1.41640003e-05
      -2.39355450e-06 -2.87149987e-06 9.06937112e-06 -5.25379437e-06
      -4.13555290e-06 7.33101206e-06 -8.36497748e-06 -6.29735496e-06
      3.61168850e-06 -1.19231290e-05 -8.83077155e-06 1.97257037e-07
      -1.51048607e-05 -6.06221374e-06 6.23855215e-07 -1.56446404e-05
      6.61019658e-06 1.21543908e-05 -4.93410289e-06 1.67625467e-06
      7.13050531e-06 -9.48358138e-06 8.08518689e-06 1.10523970e-05
      -3.97907434e-06 3.45693502e-06 7.83702126e-06 -6.37574112e-06
      -6.88935188e-06 -2.70358260e-06 -1.80452589e-05 -1.65432152e-06
      6.37377025e-06 -6.77171101e-06 -1.19753338e-06 7.49435821e-06
      -4.95906534e-06 3.80251834e-07 6.59991565e-06 -8.63663627e-06
      4.26762881e-07 2.29860939e-06 -1.38238365e-05 1.00180159e-05
      1.16054298e-05 -2.30255341e-06 5.88801367e-06 5.50697587e-06
      -9.87886597e-06 1.40835000e-05 1.18320149e-05 -1.58930573e-06
      7.33316983e-06 3.93805749e-06 -9.08334823e-06 -1.64941855e-06
      -2.15300588e-06 -6.88837190e-06 -5.07405161e-07 -9.25353504e-07
      -2.32275011e-06 -5.09652773e-06 -5.27843758e-06 -7.08308107e-06
      -1.82475674e-06 -1.66114353e-06 -1.79616177e-06 5.07499499e-06
      4.32919796e-06 3.25863220e-06 -2.47100911e-06 -3.41569375e-06
      -4.96439679e-06 -1.62396555e-06 -2.82966676e-06 -3.59052524e-06
      -1.05574475e-06 4.14661235e-06 4.55156624e-06 -1.11404661e-05
      -6.64930167e-06 -4.53589837e-06 -1.02096683e-05 -5.06946435e-06
      -3.78764798e-06 -2.20773836e-06 2.40715622e-06 2.26062502e-06
      -7.05603816e-06 -1.56339331e-06 -8.38836002e-07 -4.56158659e-06
      -1.50656444e-06 -4.39861014e-06 -6.53948155e-06 -2.90590856e-06
      -6.72734450e-06 -9.79504193e-07 1.10107226e-06 -1.05080444e-05
      -2.14918805e-06 5.31816852e-07 -1.09558223e-05 1.33193595e-07
      2.25960321e-06 -1.03089824e-05 6.98617555e-08 3.06066590e-06
      -9.03828550e-06 -3.85668329e-07 4.62902477e-07 -1.44077949e-05
      1.16723886e-05 1.62029992e-05 5.53609311e-07 2.17801316e-05
      2.55160867e-05 8.85536156e-06 3.85619751e-06 9.18994556e-06
      -6.39744167e-06 3.07171308e-06 9.57182692e-06 -4.68495273e-06
      -6.15545105e-06 1.04337516e-06 -1.21866688e-05 -2.35281027e-06
      5.82096891e-06 -9.06972127e-06 -1.61143112e-06 5.84691088e-06
      -1.03216153e-05 6.84178076e-07 8.82198674e-06 -9.17164016e-06
      -1.64690096e-06 6.71074804e-06 -1.08661307e-05 6.69730707e-06
      1.51094582e-05 -2.80403492e-06 -3.89313072e-06 3.72616864e-06
      -4.65213225e-06 -1.00961697e-05 -2.31702234e-06 -1.07595379e-05
      -6.17133037e-06 2.67029691e-06 -1.03519633e-05 1.51765289e-05
      2.46542713e-05 3.48533695e-06 1.24087501e-05 2.14519951e-05
      3.02968510e-06 1.95722205e-05 3.05392095e-05 7.07548907e-07
      1.84459968e-05 2.77249874e-05 -9.73069564e-06 1.68691913e-05
      2.72339985e-05 -9.11518873e-06 5.04672562e-06 1.55206435e-05
      -1.15218745e-05 9.49187597e-06 1.85815588e-05 -1.06443495e-05
      3.39849648e-05 4.34817739e-05 5.46049534e-08 2.15471882e-05
      3.10221949e-05 -1.15794364e-05 1.88364520e-05 2.95592108e-05
      -5.72291628e-06 1.79395392e-05 2.84143898e-05 -5.09698566e-06
      6.32797446e-06 1.73050030e-05 -3.68206292e-06 8.07242122e-06
      2.08907368e-05 4.96477242e-06 1.99091915e-06 1.35466389e-05
      1.43921784e-06 1.76947719e-06 1.54701720e-05 1.75571131e-06
      -1.24455764e-05 -1.94902282e-06 -1.58026833e-05 4.44829493e-06
      1.55661783e-05 -1.21902417e-07 -7.75847457e-06 2.37531322e-06
      -1.27113890e-05 -9.94139646e-06 -2.44537523e-06 -1.63878285e-05
      -1.08020713e-05 -3.27731709e-06 -1.81021151e-05 -8.09408630e-06
      1.95437586e-08 -1.19114347e-05 -2.74928766e-06 4.35774064e-06
      -6.64550771e-06 -4.22597805e-06 4.13709085e-06 -8.81326105e-06
      -1.35535738e-05 -4.98752524e-06 -1.72734526e-05 -1.72701209e-06
      5.13127497e-06 -8.54849804e-06 -3.53299242e-06 3.43368953e-07
      -1.54042100e-05 -2.67524274e-06 2.16345234e-06 -1.33081166e-05
      -9.01716885e-06 -8.20210334e-06 -2.27008695e-05 2.85211809e-06
      4.63022025e-06 -8.54624886e-06 -2.72597549e-06 -2.34812978e-06
      -1.35430228e-05 7.06494632e-08 1.14080387e-06 -7.84348867e-06
      4.57253918e-06 4.25265489e-06 -5.96307336e-06 1.76919980e-06
      1.42127840e-06 -4.88037040e-06 1.89888806e-06 2.28996373e-06
      -5.70050418e-07 -2.28608496e-06 -1.65768392e-06 -2.76289393e-06
      7.92547667e-07 1.90421065e-06 3.10420819e-06 3.38889777e-06
      4.00331783e-06 3.50015671e-06 3.67108015e-07 1.50295079e-07
      -2.32564025e-06 -2.21786365e-07 -1.74491549e-06 -3.85212707e-06
      -1.24512653e-05 -8.24620474e-06 -8.92250227e-06 -1.97831832e-05
      -1.49037842e-05 -1.24960843e-05 -1.35528126e-05 -6.80387211e-06
      -2.95090399e-06 -1.58100938e-05 -7.99732334e-06 -5.56145596e-06
      -2.37405447e-06 3.22709570e-06 1.48678384e-06 -2.37162908e-06
      7.91410798e-07 -4.07474681e-06 4.75276147e-06 5.71522378e-06
      -5.50264622e-06 3.87385029e-07 1.62011622e-06 -1.08831919e-05
      -5.50581262e-06 -4.52036511e-06 -1.65321526e-05 -3.12595830e-06
      -3.16785781e-06 -1.76354206e-05 4.89296190e-06 6.83315147e-06
      -7.47826061e-06 7.17216562e-06 1.06664547e-05 -5.76353295e-06
      1.20922141e-05 1.73207663e-05 1.70241174e-06 9.15823784e-06
      1.56331316e-05 -1.56827880e-07 9.69019220e-06 1.87508667e-05
      4.95764380e-06 1.14224804e-05 2.12114046e-05 5.88295234e-06
      -7.08147013e-07 8.06601201e-06 -5.95839219e-06 -6.08254823e-07
      4.76277182e-06 -1.23273094e-05 5.77365313e-07 7.40322321e-06
      -9.36052766e-06 8.39971563e-06 1.68233601e-05 8.27495583e-08
      1.42040808e-05 2.38830326e-05 7.06691435e-06 6.55638132e-06
      1.79103045e-05 4.08158400e-07 4.60654201e-06 1.51689046e-05
      -5.49509559e-06 1.07489495e-05 1.99691531e-05 -5.54874646e-07
      6.99310704e-06 1.62456636e-05 -1.70346550e-06 1.77171078e-05
      2.88891042e-05 -1.02231024e-06 2.07300927e-05 3.11409385e-05
      -3.88518492e-06 2.98106643e-05 4.10545726e-05 4.11345218e-06
      2.37267632e-05 3.50153423e-05 -6.30741124e-06 3.32324635e-06
      1.62981087e-05 -3.05615104e-05 1.62810720e-05 2.94818528e-05
      -2.32210205e-05 6.34409071e-06 1.83202246e-05 -3.34126889e-05
      1.40538359e-05 2.61017522e-05 -3.04001132e-05 3.12300581e-05
      4.44661782e-05 -1.83197826e-05 2.78970056e-05 4.25594080e-05
      -1.22680522e-05 2.73673159e-05 4.14122587e-05 -1.23544442e-05
      2.45169576e-05 3.81483587e-05 -1.21770981e-05 2.43400045e-05
      4.10191969e-05 -8.57051532e-08 7.66483208e-06 2.36442356e-05
      6.80199673e-06 5.64836711e-08 1.39829754e-05 -1.14043485e-06
      -8.93449214e-06 3.96655014e-06 -1.26936829e-05 -8.80779226e-06
      4.52948598e-06 -1.23173722e-05 6.56584552e-06 1.96356359e-05
      5.90282070e-06 -3.83075076e-06 6.94993787e-06 -3.56198120e-06
      -6.13750103e-07 1.04642359e-05 4.36858215e-07 5.72003091e-06
      1.60024720e-05 3.80317215e-06 1.05619692e-05 2.19605681e-05
      8.13158204e-06 -2.87082571e-06 7.30750389e-06 -3.35334039e-06
      -1.89073194e-06 6.97142104e-06 -4.08797769e-06 2.58888804e-07
      1.14148743e-05 3.24891698e-06 -7.64363813e-06 1.77246454e-06
      -6.69202109e-06 -9.21537230e-06 -1.98384328e-06 -1.13937795e-05
      -2.99348721e-06 1.83940563e-06 -7.94138577e-06 5.24032384e-06
      9.80058030e-06 -2.25942517e-06 6.72197439e-06 9.05707930e-06
      -5.23243398e-06 2.60358092e-06 4.67869677e-06 -5.87430077e-06
      -5.02775720e-06 -2.49899426e-06 -1.07201531e-05 3.11871099e-06
      5.07197365e-06 -1.52544328e-06 5.54854978e-07 2.46461059e-06
      -2.53606544e-07 3.18439106e-06 4.86959061e-06 3.83962970e-06
      2.80938508e-07 2.81212897e-06 3.60247350e-06 7.46954220e-06
      7.80865048e-06 5.91735625e-06 -2.73125534e-06 -3.08065523e-06
      -5.04914442e-06 7.84536860e-06 7.62989475e-06 6.82451537e-06
      -6.61555896e-06 -4.16094099e-06 -6.12555186e-06 -1.28084603e-05
      -9.82229631e-06 -8.48661239e-06 -1.27739841e-05 -9.72135240e-06
      -8.05843047e-06 5.38834638e-06 8.16467582e-06 6.83947474e-06
      7.82981658e-07 1.78861853e-06 -2.49696450e-06 3.43662168e-06
      4.19472508e-06 -1.66807285e-06 -6.14019598e-07 -1.20494576e-06
      -1.35216087e-05 1.16392775e-05 1.12706830e-05 -1.72666057e-06
      1.49263769e-05 1.44457381e-05 -1.60807531e-06 1.23137383e-07
      4.13187877e-07 -1.59672400e-05 1.10762448e-06 8.54747810e-08
      -1.59558331e-05 8.29649071e-06 1.07321912e-05 -3.76856178e-06
      4.04461889e-06 7.30183365e-06 -6.55250506e-06 -2.36717005e-06
      2.61552350e-06 -9.81728863e-06 5.73980924e-06 1.16171068e-05
      -1.70672152e-08 2.65004064e-06 8.87192346e-06 -3.13209262e-06
      5.53966402e-06 1.26225950e-05 4.81051984e-07 1.84228293e-06
      8.75649221e-06 -6.58946874e-06 3.13012902e-06 1.01975265e-05
      -6.67021823e-06 8.64486992e-06 1.66991358e-05 4.45777943e-07
      1.20075774e-05 2.09675200e-05 5.77337914e-06 6.54839869e-06
      1.45245540e-05 -2.89173886e-06 8.54431164e-06 1.72014352e-05
      -6.82816108e-07 5.84803229e-06 1.49914422e-05 -3.63311028e-06
      2.15654272e-05 3.19935352e-05 -5.05588048e-07 2.55043451e-05
      3.56573182e-05 1.57346290e-06 2.35270400e-05 3.42618259e-05
      -2.25506446e-05 2.32766688e-05 3.49055663e-05 -3.18194798e-05
      2.22219223e-05 3.61513303e-05 -2.88418050e-05 1.20208679e-05
      2.56560961e-05 -3.73586699e-05 1.45241283e-05 2.99950043e-05
      -3.71564711e-05 9.46133241e-06 2.25521799e-05 -4.10094108e-05
      2.50064750e-05 3.83287552e-05 -2.68613385e-05 2.54345632e-05
      3.95374846e-05 -2.57576812e-05 3.24624561e-05 4.65856101e-05
      -2.37247896e-05 3.93441987e-05 5.41275658e-05 -1.70997300e-05
      3.75511881e-05 5.18784036e-05 -1.41858873e-05 2.98515224e-05
      4.68172111e-05 -7.89695241e-06 2.83537101e-05 4.43700774e-05
      -6.42899386e-06 2.39661658e-05 4.00983845e-05 8.90843330e-06
      1.58176081e-05 2.76060346e-05 3.97729264e-06 4.02493561e-06
      1.25084598e-05 -5.57982776e-06 -4.86823137e-06 1.01703085e-06
      -1.31667466e-05 -3.92793982e-06 1.58517037e-06 -1.43035450e-05
      -1.91507229e-06 2.82367682e-06 -1.21311841e-05 3.21609332e-06
      7.23570929e-06 -4.47368302e-06 2.19628128e-05 2.82046713e-05
      1.35873879e-05 1.36553426e-05 1.86826001e-05 5.45951161e-06
      2.90065759e-06 5.93852883e-06 -8.35483661e-06 6.37005496e-06
      1.02300019e-05 -2.43834779e-06 5.03932961e-06 9.57648172e-06
      -1.82652354e-06 1.04681631e-05 1.45501590e-05 1.79939707e-06
      7.56637201e-06 1.13970182e-05 9.89015462e-07 1.31017023e-05
      1.70508993e-05 6.76483478e-06 5.21207448e-06 5.88099692e-06
      -5.72774570e-06 -1.22607361e-07 4.14620132e-07 -1.12359476e-05
      -7.95573033e-06 -5.58385182e-06 -1.35745340e-05 -9.01870408e-06
      -4.95649601e-06 -9.45299871e-06 -6.39591372e-06 -2.51892584e-06
      -5.66135714e-06 -6.15534327e-06 -2.89772993e-06 -2.73767569e-06
      -1.27142212e-05 -9.02033844e-06 -7.56003192e-06 -6.75939373e-06
      -4.82893211e-06 -5.78328309e-06 -7.32365243e-06 -6.47765228e-06
      -8.40813937e-06 -1.02684658e-06 1.32574812e-07 -1.28596935e-06
      -1.42018587e-06 -9.32767989e-07 -3.49895049e-06 -1.02154363e-05
      -8.47650972e-06 -7.06596484e-06 -5.48206663e-06 -4.29534839e-06
      -3.69761847e-06 2.41305383e-06 4.79935352e-06 2.86684531e-06
      6.95127301e-06 7.82706866e-06 -2.85268698e-07 8.23745449e-06
      7.97557732e-06 -1.99560941e-06 -3.22586675e-06 -4.90641514e-06
      -1.67726375e-05 -1.20410486e-05 -1.28685342e-05 -2.32510192e-05
      -9.65884055e-07 -1.55911755e-06 -1.42631698e-05 2.78805987e-06
      1.62515994e-06 -1.27930853e-05 2.35355651e-06 1.65746064e-06
      -1.18253247e-05 4.00869840e-06 5.17516082e-06 -7.77876630e-06
      2.45796036e-06 5.70812199e-06 -6.09143626e-06 6.29102033e-06
      9.42555107e-06 -2.38212624e-06 2.01342755e-06 6.29682881e-06
      -5.12981478e-06 5.12413544e-06 1.08762106e-05 -2.54644806e-06
      -5.16107639e-06 2.06477148e-06 -1.09572966e-05 -9.36283413e-06
      -3.58227749e-06 -1.33949270e-05 1.11464879e-05 1.55588241e-05
      -6.16250418e-07 7.29512840e-06 1.29786076e-05 -2.87900480e-06
      9.20958337e-06 1.66971640e-05 1.52355631e-06 6.64064828e-06
      1.43703091e-05 -2.52218751e-06 1.39118620e-05 2.26312841e-05
      7.45161969e-06 3.03881498e-05 3.95862298e-05 6.16256921e-06
      3.07890004e-05 4.18023883e-05 -4.95852692e-06 3.89665183e-05
      5.10766331e-05 -1.34654738e-05 2.34102536e-05 3.45501794e-05
      -2.70738001e-05 1.93295964e-05 3.21599509e-05 -2.64756382e-05
      2.53981689e-05 3.99579658e-05 -2.49106306e-05 2.41040962e-05
      3.76896169e-05 -2.40358386e-05 2.91146025e-05 4.43337194e-05
      -2.48994584e-05 3.37792226e-05 4.96870744e-05 -2.03233358e-05
      2.30597580e-05 3.75819909e-05 -2.77722156e-05 2.91445485e-05
      4.64473378e-05 -2.54841871e-05 2.62415269e-05 4.19574317e-05
      -2.73259739e-05 4.19677999e-05 5.67471143e-05 -1.58293624e-05
      2.64972587e-05 4.20778888e-05 -2.63062393e-05 2.69615739e-05
      4.26892730e-05 -2.21390928e-05 2.61572495e-05 4.18561031e-05
      -1.75624318e-05 1.78677928e-05 3.21615953e-05 -1.57836967e-05
      8.52648009e-06 2.17335200e-05 -1.33091426e-05 8.11580685e-06
      1.90281717e-05 -7.39444522e-06 -7.35850244e-06 -3.33768048e-06
      -1.95860794e-05 -3.81727614e-06 1.81731207e-06 -1.51849608e-05
      -1.13601004e-06 4.70734585e-06 -1.07045935e-05 1.00082589e-05
      1.52360244e-05 3.19252422e-07 1.80543411e-05 2.25066069e-05
      8.51771347e-06 7.82014649e-06 1.00314201e-05 -1.04147887e-06
      1.09903067e-05 1.51058302e-05 1.01856506e-06 8.45425234e-07
      2.61149080e-06 -1.16858737e-05 3.15749298e-06 4.43269619e-06
      -8.86873931e-06 5.17575518e-06 7.89188834e-06 -6.09355902e-06
      8.65010009e-07 1.47349760e-06 -8.46447983e-06 1.18189173e-05
      1.28153451e-05 3.04482637e-06 6.66230153e-06 6.55625718e-06
      -2.88091655e-06 6.06954200e-06 5.98170209e-06 -4.45620935e-06
      1.75330808e-06 3.92384391e-06 -3.88302669e-06 8.36229356e-06
      1.17268046e-05 3.74226079e-06 4.19111439e-06 8.13982297e-06
      2.02615206e-06 3.32864897e-06 8.89746389e-06 7.27278166e-06
      -4.33142333e-07 4.57811393e-06 4.62083062e-06 5.21306129e-06
      7.64299966e-06 6.31774719e-06 7.49227581e-07 2.44258922e-06
      2.29994441e-07 2.30861201e-06 3.72286195e-06 1.39722965e-06
      -2.63466234e-07 -5.59894069e-08 -2.66910183e-06 -1.28886422e-05
      -1.26393534e-05 -1.57636841e-05 -3.79786070e-06 -3.61076468e-06
      -8.93105607e-06 1.61452181e-06 2.89329932e-06 -8.02671536e-07
      -1.36978554e-06 -4.20196073e-07 -3.93962137e-06 9.08479365e-07
      1.09830103e-06 -7.79403672e-06 1.73565172e-06 4.93914513e-07
      -8.50056767e-06 2.36962933e-06 -4.18507433e-08 -1.01375817e-05
      -1.85136446e-06 -4.04826733e-06 -1.61063235e-05 -6.42118266e-06
      -6.90963361e-06 -2.05290835e-05 -1.37338372e-06 -4.47132322e-07
      -1.40918637e-05 -1.25014856e-06 1.11932161e-06 -1.01602054e-05
      -2.58081468e-06 9.18505183e-09 -7.66311405e-06 -5.31860996e-06
      -4.03429931e-06 -1.31797697e-05 -1.38261242e-07 1.73275097e-07
      -1.55964735e-05 -6.33054742e-06 -1.70010605e-06 -9.49546120e-06
      -3.42432077e-06 2.36798883e-06 -8.55358667e-06 9.10228118e-06
      1.59136889e-05 2.17814477e-06 1.25013548e-05 1.91537802e-05
      4.35616039e-06 1.09809189e-05 1.55979142e-05 2.21529694e-06
      9.02002012e-06 1.45632339e-05 -2.60857746e-06 2.17727961e-06
      8.38072174e-06 -6.24336781e-06 2.73690366e-05 3.53296673e-05
      3.09457118e-06 2.58479104e-05 3.62417632e-05 -1.24028338e-05
      3.57978097e-05 4.65884659e-05 -1.81727628e-05 3.19601859e-05
      4.43759563e-05 -2.12392861e-05 1.74960860e-05 3.18312377e-05
      -3.28851893e-05 3.83548395e-05 5.26306940e-05 -1.97533755e-05
      2.01013827e-05 3.35662444e-05 -3.27593807e-05 3.08850977e-05
      4.45645856e-05 -2.55350533e-05 2.15943201e-05 3.65983033e-05
      -3.10882315e-05 2.68308086e-05 4.31332737e-05 -2.69250540e-05
      2.61406531e-05 4.25362523e-05 -2.74275480e-05 2.26848369e-05
      3.93245391e-05 -2.77432428e-05 3.58578000e-05 5.22162118e-05
      -2.23699062e-05 4.13888556e-05 5.75247832e-05 -1.58376715e-05
      2.98163886e-05 4.50851076e-05 -2.99923286e-05 3.81225873e-05
      5.36595144e-05 -1.17558393e-05 3.21050611e-05 4.71619569e-05
      -1.50579326e-05 1.98849975e-05 3.39722756e-05 -2.13626554e-05
      2.88673095e-06 1.23659174e-05 -2.86707491e-05 -2.88343585e-06
      7.49556193e-06 -2.29457437e-05 1.89875755e-06 1.12261932e-05
      -1.37611041e-05 7.40362168e-07 6.78118204e-06 -1.34560387e-05
      -2.29988359e-06 2.62255685e-06 -1.13014685e-05 6.88300815e-06
      1.15421117e-05 -1.24338737e-06 8.29613509e-06 1.24144517e-05
      2.97149370e-07 -7.24052825e-06 -3.86218926e-06 -1.22511401e-05
      4.92969866e-06 6.53208235e-06 -7.48677030e-06 -3.11530653e-06
      -2.61541504e-06 -1.63265140e-05 5.93650202e-06 5.93213235e-06
      -6.22532070e-06 -4.21602635e-06 -3.75535114e-06 -1.61861244e-05
      -4.10121766e-06 -4.61545505e-06 -1.49787165e-05 9.37200093e-06
      9.27442852e-06 -1.11867530e-06 7.48624552e-06 6.38471101e-06
      -3.50580308e-06 6.58274894e-06 6.22243533e-06 -2.38072198e-06
      4.80146241e-07 9.12626319e-07 -3.64425819e-06 2.61831519e-06
      2.79328992e-06 1.90477692e-07 1.77476295e-06 2.30622754e-06
      -1.80899804e-06 2.99102021e-06 5.35170875e-06 7.44876115e-06
      -7.18866659e-06 -4.58751038e-06 -1.25366876e-06 -3.24574899e-06
      -2.60469938e-06 -1.31454829e-06 -4.51579126e-06 -1.78874677e-06
      -7.27979284e-07 -3.66810923e-06 -1.28509646e-06 -2.65146969e-06
      -1.33548938e-05 -1.38325377e-05 -1.52610392e-05 -5.47220634e-06
      -4.99996213e-06 -6.68564689e-06 1.99501369e-06 2.86532713e-06
      1.42356771e-06 -1.91819231e-06 -1.04843889e-06 -2.31258377e-06
      1.00467723e-07 9.98359951e-07 1.30302183e-07 7.80238133e-06
      9.38376797e-06 2.12119744e-06 4.62679236e-06 4.41589282e-06
      -3.84930900e-06 -7.55778444e-07 -1.03220282e-06 -1.20691184e-05
      -9.57531302e-06 -9.50191134e-06 -2.09206428e-05 -3.96135647e-06
      -3.34340234e-06 -1.39912054e-05 9.25968891e-07 3.07534606e-06
      -9.22560230e-06 -3.26944786e-07 2.69821248e-06 -5.74578371e-06
      -2.58730552e-06 1.18647336e-06 -7.10765607e-06 -7.03021215e-06
      -3.58569537e-06 -1.02499589e-05 -7.57526414e-06 -4.90501998e-06
      -1.26611494e-05 -1.27515273e-06 1.80274742e-06 -1.09866323e-05
      -8.41979545e-06 -2.31948547e-06 -1.29145628e-05 -1.30639376e-06
      5.82271014e-06 -6.39946120e-06 5.15126294e-06 1.14168261e-05
      -4.87671923e-06 2.54313272e-06 7.38289691e-06 -9.15685723e-06
      1.07522765e-05 1.52097673e-05 -2.84730436e-06 2.24123824e-06
      6.54984342e-06 -1.71293541e-05 1.81993510e-05 2.65463095e-05
      -1.96335459e-05 2.25916428e-05 3.30212606e-05 -2.66498810e-05
      3.45936533e-05 4.61065647e-05 -2.09531081e-05 3.55709126e-05
      4.81745556e-05 -2.32290076e-05 3.15647121e-05 4.63513643e-05
      -2.38812336e-05 3.16554651e-05 4.55970003e-05 -2.62376943e-05
      3.62982173e-05 5.07910372e-05 -2.04391745e-05 3.19553546e-05
